ID	0	1	2	3	4	5	6	7	8	9	10	11	12	13	14	15	16	17	18	19	20	21	22	23	24	25	26	27	28	29	30	31	32	33	34	35	36	37	38	39	40	41	42	43	44	45	46	47	48	49	50	51	52	53	54	55	56	57	58	59	60	61	62	63	64	65	66	67	68	69	70	71	72	73	74	75	76	77	78	79	80	81	82	83	84	85	86	87	88	89	90	91	92	93	94	95	96	97	98	99	100	101	102	103	104	105	106	107	108	109	110	111	112	113	114	115	116	117	118	119	120	121	122	123	124	125	126	127	128	129	130	131	132	133	134	135	136	137	138	139	140	141	142	143	144	145	146	147	148	149	150	151	152	153	154	155	156	157	158	159	160	161	162	163	164	165	166	167	168	169	170	171	172	173	174	175	176	177	178	179	180	181	182	183	184	185	186	187	188	189	190	191	192	193	194	195	196	197	198	199	200	201	202	203	204	205	206	207	208	209	210	211	212	213	214	215	216	217	218	219	220	221	222	223	224	225	226	227	228	229	230	231	232	233	234	235	236	237	238	239	240	241	242	243	244	245	246	247	248	249	250	251	252	253	254	255	256	257	258	259	260	261	262	263	264	265	266	267	268	269	270	271	272	273	274	275	276	277	278	279	280	281	282	283	284	285	286	287	288	289	290	291	292	293	294	295	296	297	298	299	300	301	302	303	304	305	306	307	308	309	310	311	312	313	314	315	316	317	318	319	320	321	322	323	324	325	326	327	328	329	330	331	332	333	334	335	336	337	338	339	340	341	342	343	344	345	346	347	348	349	350	351	352	353	354	355	356	357	358	359	360	361	362	363	364	365	366	367	368	369	370	371	372	373	374	375	376	377	378	379	380	381	382	383	384	385	386	387	388	389	390	391	392	393	394	395	396	397	398	399	400	401	402	403	404	405	406	407	408	409	410	411	412	413	414	415	416	417	418	419	420	421	422	423	424	425	426	427	428	429	430	431	432	433	434	435	436	437	438	439	440	441	442	443	444	445	446	447	448	449	450	451	452	453	454	455	456	457	458	459	460	461	462	463	464	465	466	467	468	469	470	471	472	473	474	475	476	477	478	479	480	481	482	483	484	485	486	487	488	489	490	491	492	493	494	495	496	497	498	499	500	501	502	503	504	505	506	507	508	509	510	511	512	513	514	515	516	517	518	519	520	521	522	523	524	525	526	527	528	529	530	531	532	533	534	535	536	537	538	539	540	541	542	543	544	545	546	547	548	549	550	551	552	553	554	555	556	557	558	559	560	561	562	563	564	565	566	567	568	569	570	571	572	573	574	575	576	577	578	579	580	581	582	583	584	585	586	587	588	589	590	591	592	593	594	595	596	597	598	599	600	601	602	603	604	605	606	607	608	609	610	611	612	613	614	615	616	617	618	619	620	621	622	623	624	625	626	627	628	629	630	631	632	633	634	635	636	637	638	639	640	641	642	643	644	645	646	647	648	649	650	651	652	653	654	655	656	657	658	659	660	661	662	663	664	665	666	667	668	669	670	671	672	673	674	675	676	677	678	679	680	681	682	683	684	685	686	687	688	689	690	691	692	693	694	695	696	697	698	699	700	701	702	703	704	705	706	707	708	709	710	711	712	713	714	715	716	717	718	719	720	721	722	723	724	725	726	727	728	729	730	731	732	733	734	735	736	737	738	739	740	741	742	743	744	745	746	747	748	749	750	751	752	753	754	755	756	757	758	759	760	761	762	763	764	765	766	767	768	769	770	771	772	773	774	775	776	777	778	779	780	781	782	783	784	785	786	787	788	789	790	791	792	793	794	795	796	797	798	799	800	801	802	803	804	805	806	807	808	809	810	811	812	813	814	815	816	817	818	819	820	821	822	823	824	825	826	827	828	829	830	831	832	833	834	835	836	837	838	839	840	841	842	843	844	845	846	847	848	849	850	851	852	853	854	855	856	857	858	859	860	861	862	863	864	865	866	867	868	869	870	871	872	873	874	875	876	877	878	879	880	881	882	883	884	885	886	887	888	889	890	891	892	893	894	895	896	897	898	899	900	901	902	903	904	905	906	907	908	909	910	911	912	913	914	915	916	917	918	919	920	921	922	923	924	925	926	927	928	929	930	931	932	933	934	935	936	937	938	939	940	941	942	943	944	945	946	947	948	949	950	951	952	953	954	955	956	957	958	959	960	961	962	963	964	965	966	967	968	969	970	971	972	973	974	975	976	977	978	979	980	981	982	983	984	985	986	987	988	989	990	991	992	993	994	995	996	997	998	999	1000	1001	1002	1003	1004	1005	1006	1007	1008	1009	1010	1011	1012	1013	1014	1015	1016	1017	1018	1019	1020	1021	1022	1023	1024	1025	1026	1027	1028	1029	1030	1031	1032	1033	1034	1035	1036	1037	1038	1039	1040	1041	1042	1043	1044	1045	1046	1047	1048	1049	1050	1051	1052	1053	1054	1055	1056	1057	1058	1059	1060	1061	1062	1063	1064	1065	1066	1067	1068	1069	1070	1071	1072	1073	1074	1075	1076	1077	1078	1079	1080	1081	1082	1083	1084	1085	1086	1087	1088	1089	1090	1091	1092	1093	1094	1095	1096	1097	1098	1099	1100	1101	1102	1103	1104	1105	1106	1107	1108	1109	1110	1111	1112	1113	1114	1115	1116	1117	1118	1119	1120	1121	1122	1123	1124	1125	1126	1127	1128	1129	1130	1131	1132	1133	1134	1135	1136	1137	1138	1139	1140	1141	1142	1143	1144	1145	1146	1147	1148	1149	1150	1151
DUMMY_Q1	0.0030101006850600243	0.023353811353445053	-0.008017487823963165	0.011828587390482426	0.016917331144213676	0.007620078511536121	0.008708585985004902	0.016948198899626732	-0.029154634103178978	0.011690600775182247	-0.0034024007618427277	-0.009715788997709751	-0.00017002469394356012	-0.011766504496335983	0.03381384536623955	0.013905603438615799	0.018020501360297203	-0.01940310001373291	-0.006753936875611544	0.030586756765842438	-0.005352242849767208	0.003490247530862689	0.006347124930471182	0.005419223569333553	0.03161497786641121	0.036713920533657074	0.00048751523718237877	0.021820051595568657	-0.010924957692623138	-0.001866956241428852	-0.007140814792364836	0.012913785874843597	-0.0045724892988801	0.0045824553817510605	0.04686688631772995	-0.030162647366523743	0.010266239754855633	-0.012708035297691822	0.021441368386149406	-0.004503721836954355	-0.01628997176885605	-0.0011663940967991948	-0.009044057689607143	0.0017000826774165034	-0.008836575783789158	0.008924351073801517	0.011123159900307655	0.004447420127689838	0.026755118742585182	-0.00721410196274519	-0.0018820104887709022	0.0015791428741067648	-0.011853642761707306	0.0006833303486928344	0.004058367107063532	-0.009010694921016693	-0.011162906885147095	-0.008695816621184349	0.003910430707037449	-0.009250441566109657	-0.006482929456979036	-0.01876077614724636	0.013922728598117828	0.014358804561197758	0.009832081384956837	0.005046184174716473	0.035732220858335495	0.002215801738202572	0.02228175289928913	0.025911780074238777	0.0005283297505229712	0.015006196685135365	0.014672606252133846	0.013668510131537914	0.03265155851840973	0.005626562051475048	-0.012343283742666245	0.0030521678272634745	0.003158814739435911	-0.029660355299711227	-0.011595476418733597	-0.006337880156934261	-0.008592545986175537	-4.832526610698551e-05	-0.011861041188240051	-0.004891152027994394	0.024718761444091797	0.013586018234491348	-0.009878448210656643	0.012100056745111942	0.004087882582098246	-0.02501698210835457	0.015359091572463512	-0.008618471212685108	-0.008740008808672428	0.02186334878206253	-0.00692744879052043	0.010852193459868431	0.005628748796880245	-0.016463307663798332	-0.03421201556921005	-0.021819792687892914	-0.0009663967066444457	0.013027038425207138	-0.006386225111782551	0.007743684574961662	0.0070807188749313354	-0.014519129879772663	-0.01326223649084568	0.019377823919057846	-0.009387079626321793	-0.002797594992443919	0.008856602944433689	0.02451525814831257	0.014100205153226852	0.0022254178766161203	-0.00422334298491478	-0.004384490195661783	0.008641070686280727	0.033932603895664215	0.008140488527715206	0.00694951182231307	-0.0029094666242599487	0.011015902273356915	0.0011869239388033748	0.014599129557609558	0.002990889362990856	0.005604246165603399	-0.01579362526535988	-0.02527059242129326	-0.005745896603912115	-0.025063268840312958	0.02107297070324421	0.020802099257707596	-0.011628680862486362	0.002863833215087652	-0.007605937775224447	0.004701623227447271	0.022352250292897224	-0.0040663559921085835	0.012245727702975273	-0.008502199314534664	-0.0008051616605371237	-0.0003891934175044298	-0.004116729833185673	-0.01585792563855648	0.01974940486252308	-0.0021413564682006836	0.01974216289818287	0.012127039022743702	0.015010126866400242	-0.011799545958638191	0.006096112076193094	-0.016009492799639702	0.00196399656124413	-0.020033909007906914	-0.006696770898997784	0.01387591939419508	-0.008993854746222496	0.007923089899122715	0.014199798926711082	0.0053773378022015095	-0.030226796865463257	0.010522974655032158	0.031119605526328087	0.002108478220179677	-0.011018977500498295	0.0015263700624927878	-0.007681770715862513	0.013817546889185905	0.0006891188095323741	-0.001789131318219006	-0.016044210642576218	0.007384072989225388	0.027867695316672325	0.0007875040173530579	-0.011231321841478348	0.00660273851826787	0.006912731099873781	0.00940130278468132	-0.008760472759604454	0.007603761274367571	0.009753985330462456	0.006343354471027851	-0.028213603422045708	0.018030734732747078	0.003455851459875703	0.032238658517599106	-0.010938598774373531	-0.0029899722430855036	0.018140500411391258	0.007527601905167103	0.02359733171761036	0.004951696842908859	-0.021213622763752937	0.0018767452565953135	0.0036843083798885345	-0.004467170685529709	-0.0014254109701141715	0.011648349463939667	0.014284602366387844	-0.009917598217725754	0.0009611141285859048	0.021592380478978157	0.007599920965731144	0.02083851955831051	-0.018476389348506927	0.006321439519524574	0.002164155011996627	-0.010851549915969372	-0.005962318275123835	0.012239114381372929	0.010287866927683353	0.002058743266388774	-0.017549559473991394	0.00387050723657012	-0.0018135539721697569	0.0037186299450695515	0.0034746231976896524	0.0133259491994977	-0.01665399968624115	-0.007325438316911459	-0.0027376171201467514	0.002922921674326062	0.007645547389984131	0.0013146483106538653	0.014866676181554794	0.013756840489804745	-0.005332863423973322	-0.0023327318485826254	-0.00761015247553587	0.010018762201070786	0.019858356565237045	-0.006260160356760025	0.005969665013253689	-0.0017734949942678213	0.0119174774736166	-0.004197283647954464	0.0016223181737586856	-0.004464311059564352	0.012400203384459019	-0.0026629683561623096	-0.0056531839072704315	-0.015452834777534008	0.006802487187087536	-0.0004898511688224971	0.015994718298316002	-0.007200893480330706	-0.00017908492009155452	0.010559223592281342	0.022248191758990288	-0.006387108471244574	-0.02377179265022278	0.006051843520253897	0.018347403034567833	-0.029337743297219276	0.009001106955111027	0.00972225796431303	-0.017525045201182365	0.024105262011289597	-0.009884515777230263	0.15890741348266602	-0.022606324404478073	0.0004517925553955138	0.011755228042602539	-0.010979721322655678	-0.0011014732299372554	0.008797073736786842	-0.001735763973556459	0.02374052070081234	0.0029053837060928345	0.007069047540426254	0.005566742271184921	-0.02576776035130024	-0.0043105012737214565	0.0029625450260937214	-0.008615761063992977	0.008558806031942368	-0.006650356575846672	-0.006314905360341072	0.012470000423491001	-0.02125714346766472	0.02218768000602722	0.007926802150905132	-0.0009630867280066013	-0.009511183947324753	-0.006864730268716812	-0.006341897416859865	0.008577939122915268	0.014036125503480434	-0.01439189538359642	0.008523114956915379	-0.03159741684794426	-0.012777965515851974	0.00033392736804671586	-0.004038008861243725	-0.014787659980356693	0.00744584109634161	0.019661080092191696	-0.014888128265738487	0.01531875692307949	0.003195167286321521	0.01301793847233057	0.014011779800057411	0.007832801900804043	-0.0013112957822158933	-0.004296005703508854	0.011765760369598866	-0.00029126074514351785	0.020039698109030724	0.008360985666513443	-0.02053368277847767	-0.0003477638238109648	-0.010853229090571404	-0.025286391377449036	-0.02981424704194069	0.011252263560891151	0.002927618334069848	0.0011039330856874585	-0.004045184701681137	-0.00015227349649649113	-0.008912947960197926	0.015035277232527733	0.006227284669876099	-0.007265054155141115	-0.011705176904797554	-0.009751871228218079	-0.010920803993940353	-0.011243699118494987	-0.01716834120452404	0.005947672761976719	0.005148096010088921	0.023287629708647728	0.018113307654857635	-0.05200381577014923	-0.019263627007603645	-0.006268408615142107	0.01194903813302517	0.0016706968890503049	-0.004151421599090099	0.008289216086268425	0.012902852147817612	0.0011994907399639487	-0.02101748436689377	0.0022162168752402067	-0.0018602267373353243	-0.006144924089312553	0.027492571622133255	-0.012821994721889496	-0.0007291203364729881	-0.00802780594676733	0.010112489573657513	0.003486430970951915	0.025945959612727165	0.015046888031065464	0.029953688383102417	0.00024324230616912246	-0.015016458928585052	-0.017428608611226082	-0.012081759050488472	0.03111739456653595	-0.009420447051525116	0.0177780594676733	0.012526629492640495	-0.004313915967941284	0.0007933512097224593	-0.009009160101413727	-0.013220257125794888	-0.00354320858605206	-0.012203262187540531	0.02919742465019226	0.009066486731171608	0.0031585076358169317	0.01694704219698906	-0.003559156320989132	0.019917121157050133	0.014823773875832558	-0.0035190058406442404	0.007104153279215097	0.009679201990365982	0.004120310768485069	-0.021572692319750786	-0.016743507236242294	-0.014734987169504166	0.010853078216314316	0.00979204848408699	-0.0017268151277676225	-0.006273629143834114	0.011653997004032135	-0.0011896929936483502	0.014792892150580883	0.0072715263813734055	-0.0064836908131837845	-0.016154253855347633	0.020051371306180954	-0.018449099734425545	0.015276627615094185	0.010764076374471188	0.004320166073739529	-0.003872933564707637	-0.008364993147552013	-0.016008149832487106	-0.00848544854670763	-0.0013867092784494162	0.0009122436749748886	0.0038629064802080393	-0.00879429467022419	0.0032839549239724874	0.016608156263828278	0.0011096978560090065	0.00686259288340807	-0.007503013126552105	-0.04888433590531349	-0.00982911977916956	0.0052789356559515	0.03816661983728409	-0.006453746929764748	0.002759859198704362	0.0037588661070913076	-0.020117804408073425	0.010993079282343388	0.007709759287536144	-0.0037789565976709127	-0.01012434158474207	-0.0005856133648194373	0.004764053039252758	-0.006345560308545828	0.022794099524617195	-0.0018805720610544086	-0.014194837771356106	0.026523111388087273	-0.00821363739669323	0.009084715507924557	-0.00956642720848322	0.0151990856975317	0.003672887571156025	-0.015269174240529537	-0.0021220168564468622	0.026701439172029495	-0.013901985250413418	0.043789684772491455	0.00462136697024107	0.009451903402805328	0.001530440291389823	0.03579093515872955	0.003439255990087986	0.006513557862490416	0.02183634229004383	-0.008797523565590382	0.02526751346886158	-0.01367699634283781	0.009511743672192097	0.0044616879895329475	-0.0016384966438636184	0.002360608661547303	-0.013360114768147469	-0.005532434210181236	0.0015382918063551188	-0.011421873234212399	0.014451023191213608	0.007371985819190741	-7.281665148184402e-06	-0.02140282653272152	0.016409799456596375	-0.017310425639152527	-0.043295424431562424	-0.019904131069779396	0.004453581757843494	-0.019611714407801628	-0.013150407932698727	-0.001299926545470953	-0.011847746558487415	0.022142644971609116	0.022395044565200806	0.006721594370901585	0.013868224807083607	0.0005966575117781758	0.012942742556333542	0.003754374338313937	-0.00044130103196948767	0.01030775997787714	0.02333826944231987	-0.008560790680348873	0.003914707340300083	-0.00035333060077391565	-0.0036956334952265024	-0.01220792531967163	0.006813880521804094	0.006604230031371117	0.016953110694885254	0.008566955104470253	-0.0023161100689321756	0.01724146120250225	-0.005196191370487213	-0.004344501066952944	0.015298639424145222	-0.007995547726750374	-0.014724227599799633	0.03260354325175285	0.02706468477845192	-0.13054965436458588	0.008181214332580566	-9.321336256107315e-05	0.020495546981692314	0.01652156189084053	-0.023039015009999275	0.00038505898555740714	0.014988848008215427	0.020980609580874443	0.01542453933507204	0.0022641699761152267	0.01699858345091343	-0.015331890434026718	0.006394377909600735	0.023161718621850014	-0.011915416456758976	-0.0010584278497844934	0.0065717389807105064	0.0011013397015631199	-0.019535254687070847	0.016254017129540443	0.008887659758329391	1.2278435230255127	0.0005740632768720388	0.008902820758521557	-0.018022816628217697	-0.008413719944655895	0.008438597433269024	0.0035613225772976875	0.001985021401196718	-0.0029639697168022394	0.019179759547114372	-0.010949479416012764	-0.014834091998636723	-0.00840195082128048	0.0061294687911868095	0.004880018997937441	-0.0032135203946381807	-0.01299416646361351	0.004654242191463709	0.02062639221549034	-0.015075293369591236	-0.017347952350974083	-0.010901888832449913	0.015152440406382084	0.029331564903259277	-0.01166864950209856	0.03999479487538338	0.11268007755279541	0.007565505336970091	-0.00037742257700301707	-0.003904622280970216	0.005411750171333551	-0.006783618591725826	0.019421489909291267	-0.015345701016485691	-0.024773096665740013	0.016051895916461945	0.0007209616014733911	0.015420193783938885	-0.0008309108670800924	-0.0151577303186059	-0.008648070506751537	0.009525804780423641	-0.015451572835445404	0.0071337115950882435	0.04338453337550163	-0.023077039048075676	0.010602692142128944	0.003661567345261574	0.0052197882905602455	-0.0014603411545976996	0.006394235882908106	0.014173747040331364	0.029951028525829315	-0.001780307968147099	-0.0009232627344317734	0.04414280503988266	0.0046122269704937935	-0.023340735584497452	0.014890296384692192	0.015311851166188717	-0.02069241926074028	-0.0010269071208313107	0.004865490831434727	0.015756508335471153	-0.01840798556804657	-0.007272571325302124	-0.0014765417436137795	0.009782347828149796	-0.013854539021849632	0.01723434217274189	-0.005692281760275364	0.0006976686418056488	-0.00014517248200718313	-0.0007414866704493761	-0.005595567636191845	0.0014305507065728307	0.0005521973362192512	0.00952596589922905	-0.0061280871741473675	-0.011995886452496052	0.014122966676950455	0.0012150396360084414	0.002457454102113843	-0.01812806725502014	-0.0026194497477263212	-0.010777218267321587	-0.05908383056521416	-0.017964564263820648	-0.001650854479521513	-0.01030290313065052	0.008171921595931053	0.016692563891410828	-0.006241031922399998	0.008776656351983547	0.022709006443619728	-0.017992524430155754	0.016540778800845146	-0.004019774962216616	0.2406986504793167	-0.029772112146019936	-0.007173630874603987	-0.005674497224390507	0.024530479684472084	0.022704394534230232	0.019723156467080116	0.017663076519966125	-0.01690339297056198	0.02014969289302826	-0.003398800967261195	-0.019803354516625404	-0.0036681562196463346	-0.0023946587461978197	0.003538896096870303	-0.0016016296576708555	0.008247870951890945	-0.0037445384077727795	-0.01057423371821642	-0.0010620406828820705	-0.0024066537152975798	-0.0025600004009902477	-0.0034517114982008934	-0.021265408024191856	0.024087315425276756	0.01221409346908331	0.023954136297106743	-0.009004740975797176	0.0023219194263219833	0.017359202727675438	0.012151794508099556	-0.012180786579847336	0.0077667515724897385	0.0065307351760566235	0.011277024634182453	-0.0026888903230428696	0.0024881178978830576	0.009436587803065777	0.01772965118288994	-0.030049841850996017	-0.004638923332095146	0.004306348040699959	-0.014786825515329838	-0.009387411177158356	0.006395137403160334	-0.00593445124104619	0.008181954734027386	0.009588056243956089	-0.02542479708790779	0.02428387477993965	0.02226991578936577	0.0040279352106153965	0.010294516570866108	0.001961626810953021	0.012819639407098293	0.008664782159030437	-0.0200867410749197	-0.8404316306114197	0.012221168726682663	0.0019201065879315138	-0.00823364220559597	-0.003519125049933791	0.005143544636666775	0.013938619755208492	-0.0038867248222231865	-0.0060880170203745365	-0.00986582599580288	-0.003791408846154809	-0.013619973324239254	-0.0010141129605472088	0.00016020600742194802	-0.02157917618751526	0.006575075909495354	-0.008150594308972359	-0.030643396079540253	0.012688043527305126	-0.016148660331964493	0.013435346074402332	-0.04064764827489853	-0.19666911661624908	-0.6904695630073547	-0.008233372122049332	0.003288745414465666	-0.025369685143232346	-0.0003272409667260945	0.00034593205782584846	-0.014290901832282543	-0.01853078044950962	-0.016554754227399826	-0.007614645641297102	0.007809795904904604	-0.0024133725091814995	0.0005319392075762153	-0.025489024817943573	-0.02541618049144745	-0.017802242189645767	0.018301647156476974	0.002010346855968237	-0.009505306370556355	0.020968452095985413	-0.003701298963278532	-0.019811809062957764	-0.0010590361198410392	-0.003122303867712617	-0.010049700736999512	0.0006834843661636114	0.017070218920707703	0.012598954141139984	-0.014440505765378475	0.007272414863109589	-0.03528987988829613	0.02097754366695881	0.005935950670391321	0.006599278189241886	0.01926383003592491	-0.011105315759778023	0.00025961463688872755	0.0005644717602990568	0.00808132253587246	0.019832603633403778	0.012121345847845078	-0.023327190428972244	-0.009457802399992943	-0.013963580131530762	-0.016545124351978302	0.00488091167062521	0.013127041049301624	-0.017487328499555588	0.0052683353424072266	-0.009455256164073944	1.9051532945013605e-05	-0.014968964271247387	-0.005762932356446981	-0.00020583107834681869	-0.028141802176833153	2.129730455635581e-05	0.00719829136505723	-0.009812760166823864	0.020655296742916107	0.006996955256909132	-0.001907937927171588	-0.022069942206144333	-0.012364531867206097	0.026528876274824142	-0.015288794413208961	0.003167656948789954	0.0006231754086911678	-0.02663663774728775	0.005282566417008638	-0.010800874792039394	-0.014017660170793533	0.00181387213524431	0.013358509168028831	0.002433891175314784	-0.0013147805584594607	-0.012804639525711536	0.026455983519554138	-0.007567955646663904	0.01178787276148796	0.002251541242003441	-0.009903185069561005	-0.02101108618080616	-0.020038802176713943	-0.021831920370459557	0.00299777346663177	0.004544867668300867	-0.004689507186412811	-0.0029977993108332157	-0.0016488960245624185	0.016319142654538155	0.005654477048665285	-0.00687286164611578	0.01379252877086401	0.020506367087364197	0.00024626185768283904	0.01906462199985981	0.010117566213011742	0.006484486628323793	-0.0006204330711625516	-0.027765721082687378	-0.011484244838356972	-0.010182754136621952	0.007590482942759991	0.015130046755075455	0.00015402639110106975	-0.016211101785302162	-0.0031939952168613672	-0.007510262541472912	0.020801156759262085	0.0026132494676858187	0.020889146253466606	0.028472816571593285	0.02669770084321499	0.01983697898685932	-0.0196466613560915	0.026852626353502274	0.007036663591861725	0.021802479401230812	-0.013093541376292706	0.01315308641642332	-0.024351786822080612	0.012028375640511513	0.01842530444264412	-0.022958820685744286	-0.02990616485476494	-0.0014993780059739947	0.008522502146661282	0.009730701334774494	0.021362077444791794	-0.0023415617179125547	-0.017903277650475502	-0.009079343639314175	-0.015804266557097435	0.0206597950309515	-0.0023299059830605984	-0.003290326800197363	-0.030532006174325943	-0.018695374950766563	-0.00333083001896739	-0.009851229377090931	0.013725296594202518	0.009249974973499775	-0.011507304385304451	-0.0008120814454741776	-0.010716723278164864	-0.003458784893155098	-0.01250106655061245	-0.03166794404387474	-0.018791744485497475	0.007841813378036022	-0.0029688391368836164	0.01615114137530327	-0.01011937391012907	-0.012222017161548138	0.013425278477370739	0.0036974812392145395	0.0004365117638371885	0.03046489506959915	0.014611480757594109	0.004468866158276796	0.024965714663267136	0.0035611744970083237	0.003271555295214057	-0.011109315790235996	0.0014656054554507136	0.018643448129296303	-0.013058345764875412	0.023297632113099098	0.00729215145111084	0.005673863925039768	-0.004213146399706602	0.04199134185910225	-0.007133786100894213	0.032679811120033264	0.0031465240754187107	0.03868677094578743	0.0058889565989375114	-0.01590101048350334	0.010629331693053246	-0.01995418407022953	-0.02054051123559475	0.010051175951957703	-0.012052145786583424	-0.008076464757323265	-0.004701631609350443	0.00423286110162735	0.008604234084486961	0.002877295482903719	-0.010569320060312748	-0.026176271960139275	-0.03237683326005936	-0.0006454153335653245	0.0019660862162709236	0.0032127960585057735	-0.014612450264394283	0.008211367763578892	-0.004473528824746609	-0.02491714246571064	0.004903404973447323	0.002991799497976899	0.004298850893974304	-0.02051502652466297	-0.010996080003678799	0.007998382672667503	-0.01001587975770235	0.015830574557185173	0.027286862954497337	0.009941824711859226	-0.014544314704835415	0.0065855663269758224	0.0035582841373980045	0.012124596163630486	0.015539923682808876	-0.003869088599458337	0.015607609413564205	-0.0077959042973816395	-0.004607671871781349	0.010502350516617298	-0.01478070579469204	0.011545420624315739	-0.014069770462810993	0.0022479593753814697	0.004991807974874973	0.0074225920252501965	-0.01150700356811285	-0.00772984279319644	-0.023068871349096298	0.005187335889786482	0.01596926897764206	-0.0020731245167553425	-0.00841952208429575	0.0005701343761757016	0.00012559584865812212	-0.00025849268422462046	0.02522384747862816	-0.012300894595682621	-0.005649216938763857	-0.007892399094998837	-0.006841468159109354	-0.01587843894958496	-0.005740053951740265	-0.002763967029750347	0.014149393886327744	0.018044615164399147	0.0014192713424563408	0.01420008298009634	-0.011698480695486069	0.01293950155377388	-0.0007230959599837661	-0.0037020891904830933	0.004328478127717972	0.004984649829566479	-0.021957727149128914	-0.0035659170243889093	0.0037853633984923363	0.031210653483867645	0.007458528503775597	-0.006424279883503914	0.0037217731587588787	0.0025665152352303267	-0.010916801169514656	0.0037406692281365395	-0.015634777024388313	0.016474056988954544	0.0074393972754478455	-0.009868121705949306	0.022464048117399216	-0.021952718496322632	-0.019129624590277672	-0.048632025718688965	-0.0012329863384366035	0.020970582962036133	-0.021609973162412643	-0.011944115161895752	-0.0021864469163119793	-0.01625237613916397	0.013178562745451927	-0.016532983630895615	-0.004205648321658373	-0.017619501799345016	0.01735510490834713	-0.0033342011738568544	-0.010099160484969616	0.0006606722599826753	0.004796522669494152	0.008190380409359932	0.007192536722868681	0.006053112912923098	0.006376465316861868	-0.011397171765565872	0.00023912329925224185	0.019372718408703804	0.019473249092698097	0.005052319727838039	-0.01404394768178463	0.015484867617487907	-0.010252810083329678	-0.008714175783097744	-0.007675774861127138	-0.0018262367229908705	-0.024765418842434883	0.02034665271639824	-0.032940179109573364	0.0002903333224821836	-0.012338896282017231	0.0101901451125741	0.0317656472325325	-0.039137229323387146	0.03237796947360039	-0.0194232314825058	-0.025902267545461655	-0.023683561012148857	0.0010408149100840092	-0.00951442215591669	0.007514384109526873	0.004505441524088383	-0.0017573460936546326	0.0029577757231891155	-0.012747948989272118	0.01274531427770853	0.01500073540955782	0.007665200158953667	-0.001197942765429616	0.010362743400037289	0.02115492708981037	-0.027025578543543816	0.006555554922670126	0.028928736224770546	-0.02515004202723503	0.002850199118256569	0.0017831630539149046	0.017303453758358955	0.017530597746372223	0.02056742273271084	0.0012221001088619232	-0.16613006591796875	0.014543960802257061	-0.010670668445527554	-0.0050060441717505455	-0.005636303685605526	-0.009593801572918892	0.00833902694284916	0.0035675629042088985	0.0027082946617156267	-0.1528821885585785	0.00774346012622118	-0.007618806324899197	-0.012534502893686295	-0.0026095376815646887	-0.013574120588600636	0.01830882579088211	-0.027814680710434914	-0.010807719081640244	-0.005446725059300661	0.0003034990804735571	0.01320067048072815	-0.007750316057354212	0.00017275639402214438	-0.014140992425382137	-0.010633178986608982	0.017681272700428963	0.01167284045368433	-0.003109955694526434	-0.015056828036904335	0.008054803125560284	-0.007826128974556923	-0.03678541257977486	0.018230335786938667	-0.01764940284192562	0.013771542347967625	0.014665857888758183	0.0001577655057189986	0.014569181948900223	-0.0017410716973245144	0.014000017195940018	0.009539186954498291	0.01631837897002697	0.012202050536870956	0.019792158156633377	-0.007359242532402277	-0.0012935230042785406	0.005635648965835571	-0.006275963969528675	0.017827868461608887	0.004974727053195238	-0.0266411192715168	-0.01575729437172413	-0.011224132962524891	0.0016730257775634527	-0.0027141286991536617	0.0055793155916035175	-0.6824153661727905	-0.0084913931787014	-0.0037660952657461166	-0.011767392978072166	-0.006171921268105507	-0.01190053392201662	-0.010030847042798996	0.0028896359726786613	0.005190406460314989	-0.033831674605607986	0.02479276806116104	0.0028520170599222183	0.01631125621497631	-0.0034851757809519768	-0.019292358309030533	-0.004333101212978363	-0.008504542522132397	-0.021484222263097763	0.0018195569282397628	-0.014142881147563457	0.00021081055456306785	0.012464274652302265	0.013993634842336178	0.00737204821780324	0.010956223122775555	0.0005454611964523792	-0.0073280660435557365	-0.010291056707501411	-0.13009001314640045	0.012247983366250992	0.00015368206368293613	0.004415157716721296	0.003026640973985195	-0.003017684444785118	-0.001039742841385305	0.002510863123461604	-0.003164313966408372	-0.021835174411535263	0.08773171901702881	-0.01124926283955574	-0.08272827416658401	-0.02668141946196556	0.00752857094630599	0.004473940934985876	0.022498590871691704	0.011049844324588776	-0.01469611469656229	0.01537808496505022	0.005888845771551132	0.032384853810071945	0.007057436741888523	-0.00042009371099993587	-0.027899952605366707	0.011594470590353012	0.0366005003452301	0.010326996445655823	-0.003763651940971613	-0.0028269044123589993	0.004866521805524826	0.022587737068533897	-0.000545238726772368
DUMMY_H1	0.0016366196796298027	0.018067631870508194	-0.004361823201179504	0.007970104925334454	0.012708735652267933	-0.0006867633201181889	0.0057357968762516975	0.015285970643162727	-0.0341012179851532	0.012569811195135117	0.002563351532444358	-0.004006045404821634	0.0011448519071564078	-0.011766522191464901	0.03500736877322197	0.01426861621439457	0.015303077176213264	-0.02353009581565857	-0.005725415889173746	0.03722033649682999	-0.003047945676371455	0.004904066678136587	0.006403675768524408	0.004758411552757025	0.029144590720534325	0.03181065246462822	0.0063237641006708145	0.02750260755419731	-0.015365670435130596	-0.0034861199092119932	-0.014290082268416882	0.010877452790737152	-0.004784143529832363	0.0017627475317567587	0.04131857305765152	-0.03262351080775261	0.01403734926134348	-0.014248605817556381	0.018861865624785423	-0.0019946570973843336	-0.015967464074492455	0.000980354961939156	-0.006637296639382839	0.0019449219107627869	-0.013895276933908463	0.008128570392727852	0.014781594276428223	0.001915676286444068	0.02526327222585678	-0.009581740945577621	-0.0020223637111485004	0.0054236180149018764	-0.012215393595397472	-0.0006994602154009044	0.007361832540482283	-0.0067503186874091625	-0.014876154251396656	-0.013088878244161606	0.0028150316793471575	-0.008807054720818996	-0.006908633280545473	-0.02330170013010502	0.012117416597902775	0.01124454103410244	0.007562237326055765	0.004627909045666456	0.0351015105843544	-0.0006427817861549556	0.020329846069216728	0.018362294882535934	0.0014354042941704392	0.01660340651869774	0.0072375331073999405	0.009868787601590157	0.023380320519208908	0.007660094182938337	-0.011399006471037865	0.003576872171834111	0.003931095823645592	-0.029691724106669426	-0.008131907321512699	-0.012497564777731895	-0.007306198589503765	-0.002800718415528536	-0.0048404778353869915	-0.008410293608903885	0.022206397727131844	0.014668025076389313	-0.012765387073159218	0.013952357694506645	0.007332397624850273	-0.01666618511080742	0.015504719689488411	-0.007822033017873764	-0.009976907633244991	0.02336585707962513	-0.0060348245315253735	0.010872135870158672	-0.0023935020435601473	-0.011331808753311634	-0.0326257087290287	-0.018514640629291534	-0.002699516946449876	0.012798529118299484	-0.002543458715081215	0.006100006867200136	0.007378739304840565	-0.013385096564888954	-0.011990834027528763	0.013527699746191502	-0.00829403754323721	-0.003866366110742092	0.007470285054296255	0.024398207664489746	0.012585470452904701	-0.00159464159514755	-0.004722226411104202	-0.0034467901568859816	0.007635137066245079	0.02981611341238022	0.009488956071436405	0.00302282371558249	-0.004833234008401632	0.011779810301959515	0.007394714746624231	0.014504631981253624	-0.0003942126641049981	0.0029036456253379583	-0.01263454556465149	-0.02314760722219944	-0.0013522225199267268	-0.025266699492931366	0.023103706538677216	0.01681539975106716	-0.008314916864037514	0.0032351601403206587	-0.0043915086425840855	0.005202176980674267	0.021459350362420082	-0.004528185352683067	0.0136947613209486	-0.007885881699621677	0.006815569940954447	0.0028164696414023638	-0.000994631671346724	-0.013341529294848442	0.018517805263400078	-0.0028214100748300552	0.016451897099614143	0.016862696036696434	0.013869659043848515	-0.011291973292827606	0.007054005283862352	-0.014067315496504307	-0.0016378572909161448	-0.01686117984354496	-0.005656433757394552	0.013654659502208233	-0.007025981787592173	0.00789004098623991	0.015495154075324535	-0.0027318906504660845	-0.026855694130063057	0.006769509986042976	0.030607987195253372	0.0011943122372031212	-0.0077304719015955925	0.002229848876595497	-0.00816521979868412	0.018925799056887627	0.00033212234848178923	-0.0019199413945898414	-0.01402062177658081	0.00633615767583251	0.03211921453475952	0.003398231463506818	-0.010756601579487324	0.008677957579493523	0.00599216902628541	0.013674871064722538	-0.004294020589441061	0.0007711290963925421	0.007039078511297703	0.005922332406044006	-0.02486530691385269	0.0167719516903162	0.0009741594549268484	0.03422919660806656	-0.01322350837290287	-0.0022499223705381155	0.024015113711357117	0.0051611741073429585	0.022418096661567688	0.004124808590859175	-0.02076011337339878	-0.0009644160163588822	0.00813006516546011	-0.0013783740578219295	-0.0012593320570886135	0.012962843291461468	0.010194040834903717	-0.007382576819509268	0.0004900922649540007	0.014335332438349724	0.007892840541899204	0.023043997585773468	-0.015364819206297398	0.00553860841318965	0.0006822744617238641	-0.011007754132151604	-0.012048229575157166	0.0072395759634673595	0.013618947938084602	0.00043477697181515396	-0.014445316977798939	0.004732969217002392	-0.0031503329519182444	0.0016673774225637317	0.0015458513516932726	0.014013598673045635	-0.016834111884236336	-0.010609160177409649	-9.787532326299697e-05	-2.4769880837993696e-05	0.011800028383731842	-0.0013821120373904705	0.014607435092329979	0.013696698471903801	-0.0077849202789366245	-0.0021217188332229853	-0.0056455256417393684	0.007217809092253447	0.01724417507648468	-0.0037406657356768847	0.011305410414934158	-0.003198364283889532	0.037911307066679	-0.004146237391978502	-0.0028272790368646383	-0.009257503785192966	0.013481632806360722	-0.007024821359664202	-0.00333018833771348	-0.014495348557829857	0.008440354838967323	-0.0029956791549921036	0.013913482427597046	-0.007792737800627947	0.0013762920862063766	0.008866882883012295	0.02328657917678356	-0.0042290943674743176	-0.02056371606886387	0.012452610768377781	0.01991790346801281	-0.02873392030596733	0.013848796486854553	0.007617993745952845	-0.012949449941515923	0.03227619454264641	-0.013924769125878811	0.15340623259544373	-0.02025797963142395	-0.0016250674379989505	0.0058768815360963345	-0.006908742245286703	0.002392246387898922	0.007892904803156853	8.088839967967942e-05	0.019050179049372673	-0.00010857991583179682	0.004891823977231979	0.00648958794772625	-0.025463243946433067	-0.004115451127290726	0.002254646038636565	-0.01591033861041069	0.0028266056906431913	-0.007788460701704025	-5.500891347764991e-05	0.013616764917969704	-0.02427993156015873	0.023366281762719154	0.007112635299563408	0.0018468211637809873	-0.010180463083088398	-0.010154878720641136	-0.01037707831710577	0.011731509119272232	0.013207118958234787	-0.013477621600031853	0.005731263197958469	-0.022803885862231255	-0.014922920614480972	-0.003233574330806732	-0.0018422420835122466	-0.012171277776360512	0.00650222459807992	0.017864666879177094	-0.017295097932219505	0.013918188400566578	0.0045608594082295895	0.015633290633559227	0.016204025596380234	0.009440358728170395	0.001027985941618681	0.001163569511845708	0.013784654438495636	0.002156550297513604	0.02425268292427063	0.0052469936199486256	-0.020252572372555733	0.001058422145433724	-0.012106087058782578	-0.028040897101163864	-0.027583371847867966	0.01061138603836298	-0.0004163463891018182	0.0037421039305627346	-0.007372941356152296	0.006388482637703419	-0.008350908756256104	0.012152042239904404	0.002677292563021183	-0.005992102436721325	-0.007751923985779285	-0.009524757042527199	-0.012471755966544151	-0.007193555124104023	-0.01581203006207943	0.010202767327427864	0.0036583279725164175	0.021416807547211647	0.017280148342251778	-0.08021519333124161	-0.013625819236040115	-0.007152160629630089	0.014207963831722736	0.0019218774978071451	-0.00010696560639189556	0.006720016710460186	0.011109553277492523	-0.0003756253863684833	-0.018116142600774765	0.00514216348528862	-0.0036177525762468576	-0.0023264028131961823	0.0259889904409647	-0.009567447938024998	0.001901600044220686	-0.005212338641285896	0.012115741148591042	0.0009483784670010209	0.025600269436836243	0.014072777703404427	0.03008262813091278	0.001522355480119586	-0.013499841094017029	-0.01895720325410366	-0.015875915065407753	0.02764543890953064	-0.009039141237735748	0.017166221514344215	0.013928247615695	-0.0016680487897247076	0.0011025366839021444	-0.006004367955029011	-0.01686663180589676	-0.00965628307312727	-0.013648935593664646	0.026706794276833534	0.009470057673752308	0.005614556837826967	0.01181710697710514	-0.006381690502166748	0.021419823169708252	0.018189312890172005	-0.004719299729913473	0.0057229152880609035	0.011759144254028797	0.0035711140371859074	-0.01839119754731655	-0.015662720426917076	-0.012468436732888222	0.014581261202692986	0.01239070761948824	-0.0009497202700003982	-0.007325527723878622	0.0069814203307032585	0.00036281836219131947	0.016599273309111595	0.014817780815064907	-0.010386847890913486	-0.012345151044428349	0.016896264627575874	-0.020140191540122032	0.010380654595792294	0.011291541159152985	0.0009256355697289109	-0.005851402413100004	-0.004621920175850391	-0.015469006262719631	-0.005222772713750601	0.000781688722781837	0.002740011550486088	0.011902953498065472	-0.010353711433708668	0.008371089585125446	0.01440186332911253	0.008093655109405518	0.005107829347252846	-0.007804966066032648	-0.04977840557694435	-0.010898416861891747	0.009318428114056587	0.036450501531362534	-0.0006520551396533847	0.00021743476099800318	0.0006986253429204226	-0.017451006919145584	0.007875490933656693	0.010232288390398026	-0.005259688012301922	-0.017718512564897537	0.001023992896080017	0.0010980878723785281	0.0003851422225125134	0.02446933649480343	-0.0005270910914987326	-0.016568506136536598	0.025630157440900803	-0.005041962489485741	0.012954700738191605	-0.013368070125579834	0.014473021030426025	0.003630423918366432	-0.008126343600451946	-0.000589227769523859	0.02638109028339386	-0.0072353193536400795	0.038097407668828964	0.0011700959876179695	0.007680489215999842	-0.0009233290911652148	0.038755957037210464	-0.00012288769357837737	0.005466898903250694	0.020928455516695976	-0.0020203005988150835	0.023303089663386345	-0.016954682767391205	0.009417708963155746	0.003585882717743516	-0.0008853467297740281	-0.001399990520440042	-0.012058631516993046	-0.004796381574124098	0.001674391096457839	-0.01329229585826397	0.009791192598640919	0.006381068378686905	-0.002195125911384821	-0.015233050100505352	0.01785517856478691	-0.020023304969072342	-0.04075736552476883	-0.016804322600364685	0.009167555719614029	-0.015515943989157677	-0.008402237668633461	-0.002711925422772765	-0.010399267077445984	0.01898740790784359	0.028974002227187157	0.012916374951601028	0.012951653450727463	-0.004227491095662117	0.009043650701642036	0.0026012645103037357	-0.0011654795380309224	0.010568606667220592	0.023365048691630363	-0.004005231894552708	0.007692987564951181	0.0030236197635531425	-0.00431734137237072	-0.012274340726435184	0.006306868977844715	0.004851500503718853	0.017578311264514923	0.015352705493569374	-0.0027533364482223988	0.01632254756987095	-0.003907325677573681	0.0004930332070216537	0.01486173179000616	-0.005906043108552694	-0.01583709940314293	0.02721881866455078	0.023552292957901955	-0.1532600075006485	0.004580829758197069	0.000947006163187325	0.019632982090115547	0.021696729585528374	-0.020695539191365242	-0.008813786320388317	0.012718996033072472	0.02145973965525627	0.01435245294123888	-0.0016074771992862225	0.011094700545072556	-0.01522819697856903	0.012386783957481384	0.02118259109556675	-0.009223106317222118	-0.0007291939109563828	0.0067037916742265224	-0.0018580653704702854	-0.02140757441520691	0.018271587789058685	0.013736780732870102	1.184210181236267	0.004729508422315121	0.004593708086758852	-0.016971779987215996	-0.006499715615063906	0.009071447886526585	0.0033158580772578716	0.0034022931940853596	-0.004559890367090702	0.01656406931579113	-0.00658680172637105	-0.014548206701874733	-0.004521892871707678	0.0058040926232934	0.00487501872703433	0.004710950888693333	-0.013619747944176197	0.009733177721500397	0.023615477606654167	-0.017771584913134575	-0.01821441948413849	-0.01020495779812336	0.011612992733716965	0.02564183808863163	-0.0037138760089874268	0.045849449932575226	0.09732013195753098	0.0035296096466481686	-0.0012502636527642608	-0.0021166359074413776	0.0040613021701574326	-0.00855269469320774	0.018551621586084366	-0.015047525987029076	-0.02187950909137726	0.01433632057160139	0.003072455758228898	0.00905892625451088	-0.003291386179625988	-0.010552586987614632	-0.012801436707377434	0.006022362969815731	-0.013837563805282116	0.005829310044646263	0.04428456351161003	-0.013578434474766254	0.012419460341334343	0.0018337337533012033	0.005884728394448757	0.0006796846282668412	0.0076878974214196205	0.019912702962756157	0.022909976541996002	-0.004649239592254162	0.001843890524469316	0.04296496883034706	0.0029339028988033533	-0.02229108102619648	0.018146870657801628	0.014962865971028805	-0.020400555804371834	-0.00172452034894377	0.002219695597887039	0.006948859430849552	-0.015586172230541706	-0.009825714863836765	-0.003021365962922573	0.012067990377545357	-0.01494663767516613	0.014270192943513393	-0.0010239611146971583	0.0021541432943195105	0.004837920889258385	0.0021070304792374372	-0.005398005247116089	0.0006573041900992393	-0.0011714635184034705	0.010258966125547886	-0.0016942693619057536	-0.011039462871849537	0.017237387597560883	-0.0006874680984765291	0.00482322508469224	-0.02021382562816143	-0.008938944898545742	-0.007983382791280746	-0.05238358676433563	-0.019342785701155663	0.0003908939252141863	-0.01535243820399046	0.0008385295514017344	0.014258119277656078	-0.005834606010466814	0.012675382196903229	0.0208735391497612	-0.018507372587919235	0.01852208934724331	0.0012886301847174764	0.2411632239818573	-0.02685142681002617	-0.009820972569286823	-0.0044408757239580154	0.0159726832062006	0.022178828716278076	0.023304155096411705	0.02331167459487915	-0.014435936696827412	0.020385196432471275	-0.005760976113379002	-0.013535227626562119	-0.0019027795642614365	-0.0031194472685456276	0.007823843508958817	-0.0008164033060893416	0.005818464327603579	-0.00780785595998168	-0.010487740859389305	0.0001579157542437315	0.0008053962956182659	-0.0026546213775873184	0.0019357700366526842	-0.01882707141339779	0.01722419261932373	0.015079944394528866	0.025978203862905502	-0.0057356227189302444	0.002179407747462392	0.01370923686772585	0.016302257776260376	-0.00789438746869564	0.008662620559334755	0.0033559168223291636	0.015036843717098236	0.0013763067545369267	0.0023289157543331385	0.014836112037301064	0.01690935716032982	-0.02469574473798275	-0.0051138573326170444	0.007776074111461639	-0.017995325848460197	-0.004806593060493469	0.0015236551407724619	-0.007769641000777483	0.00433560973033309	0.0034800171852111816	-0.020160576328635216	0.02586820349097252	0.02385115623474121	0.007413789164274931	0.0032728170044720173	0.005538808647543192	0.007524378132075071	0.010730995796620846	-0.021351555362343788	-0.8325769901275635	0.018618116155266762	0.0035070606973022223	-0.010418418794870377	-0.002993164351209998	-0.0004696172836702317	0.013800308108329773	-0.001259618904441595	-0.007574234623461962	-0.01332857646048069	-0.004185223486274481	-0.016080446541309357	-0.004028692375868559	0.001057458808645606	-0.022255223244428635	0.004510683473199606	-0.0070419954136013985	-0.026395762339234352	0.005807546898722649	-0.010410959832370281	0.011892708949744701	-0.02537001296877861	-0.15983040630817413	-0.6798048615455627	-0.006541440729051828	0.0026990515179932117	-0.021236887201666832	-0.007077894639223814	0.00153225043322891	-0.020103581249713898	-0.020463639870285988	-0.016504915431141853	-0.011548912152647972	0.0072099328972399235	-0.004448415711522102	-0.0022243275307118893	-0.027427073568105698	-0.0218476802110672	-0.017857220023870468	0.02049458958208561	0.008297453634440899	-0.0058250571601092815	0.020000601187348366	0.006272391881793737	-0.01975362002849579	-0.0025897889863699675	-0.004503733012825251	-0.0022512825671583414	0.003284790087491274	0.01591402292251587	0.01333412155508995	-0.017278404906392097	0.006804162636399269	-0.03184676915407181	0.025210632011294365	0.005763181019574404	0.005691905971616507	0.017311623319983482	-0.012601442635059357	-0.002608593087643385	0.00023611348296981305	0.00679088244214654	0.020436251536011696	0.009946259669959545	-0.01816101372241974	-0.01407160609960556	-0.005783290136605501	-0.008762562647461891	0.0018547801300883293	0.011466587893664837	-0.02251571975648403	0.006208604667335749	-0.0036993257235735655	-0.0031777224503457546	-0.014868814498186111	-0.008818577043712139	-0.003127308562397957	-0.02465778775513172	0.000502794049680233	0.0036616597790271044	-0.007454219739884138	0.024005534127354622	0.012458503246307373	-0.004075540695339441	-0.019925430417060852	-0.008773562498390675	0.02335783839225769	-0.011019812896847725	-0.0011093876091763377	8.131287177093327e-05	-0.03273981064558029	0.006791285239160061	-0.009445235133171082	-0.01703902892768383	0.0016627515433356166	0.012197557836771011	0.002216873923316598	-0.00013836527068633586	-0.014028845354914665	0.02850712276995182	-0.003499919082969427	0.013308633118867874	0.0005663462798111141	-0.00844922848045826	-0.0211676973849535	-0.018182815983891487	-0.02249252051115036	0.0024307616986334324	0.004587283357977867	-0.010307149030268192	0.0006903454777784646	-0.009634042158722878	0.01831432431936264	0.010658579878509045	-0.004249610472470522	0.014440410770475864	0.02038235031068325	-0.0004909706185571849	0.015660075470805168	0.012204252183437347	0.005813559517264366	-0.006806293036788702	-0.029894618317484856	-0.011428133584558964	-0.013128802180290222	0.004878086503595114	0.009193283505737782	0.0034268007148057222	-0.016602683812379837	-0.004129049833863974	-0.004299047868698835	0.017204156145453453	0.0034208190627396107	0.020779626443982124	0.03150824084877968	0.02716165781021118	0.016609175130724907	-0.020242325961589813	0.030119936913251877	0.0065522100776433945	0.02374248579144478	-0.01240617223083973	0.017031395807862282	-0.030733877792954445	0.006050768308341503	0.017171304672956467	-0.017826015129685402	-0.02606995590031147	0.004493522457778454	0.009713972918689251	0.009386288933455944	0.02295011840760708	-0.0006263600080274045	-0.015381718054413795	-0.010627299547195435	-0.016558639705181122	0.017709271982312202	-0.0009008222259581089	-0.007184828165918589	-0.034694842994213104	-0.01794634945690632	-0.01216090563684702	-0.005975409876555204	0.01665317639708519	0.008605295792222023	-0.012245194986462593	0.005734266247600317	-0.010877562686800957	-0.0024277407210320234	-0.012256475165486336	-0.031324245035648346	-0.022838018834590912	0.004171630367636681	-0.004364211577922106	0.015847647562623024	-0.0036509940400719643	-0.012763665989041328	0.019849127158522606	0.0008934363722801208	-0.0013106997357681394	0.027509823441505432	0.013746954500675201	0.0018295507179573178	0.02175915241241455	0.006297570187598467	0.0032382917124778032	-0.008368467912077904	0.0026324589271098375	0.018011413514614105	-0.012546398676931858	0.020575420930981636	0.011310449801385403	0.00403524748980999	-0.0075657726265490055	0.040638890117406845	-0.00810218695551157	0.027326779440045357	0.006485784891992807	0.03873291239142418	0.007551669143140316	-0.013396120630204678	0.012973419390618801	-0.01853715069591999	-0.02267339639365673	0.006701958831399679	-0.012297186069190502	-0.014334634877741337	-0.002732903230935335	0.007364675868302584	0.014712871983647346	0.0042038243263959885	-0.012847157195210457	-0.02366028167307377	-0.03541656956076622	-0.0065314881503582	0.0021815048530697823	0.004197582136839628	-0.014024720527231693	0.006499780807644129	-0.0008326144306920469	-0.02551700361073017	0.005375159438699484	0.005353166721761227	0.005262348335236311	-0.016759520396590233	-0.012218441814184189	0.005877475719898939	-0.011496400460600853	0.017404569312930107	0.02959471195936203	0.005779007449746132	-0.011620786972343922	0.004094064235687256	0.0014538683462888002	0.011591569520533085	0.011362704448401928	-0.004749995656311512	0.010805821977555752	-0.008059993386268616	-0.009476136416196823	0.006371689960360527	-0.014978112652897835	0.0064741624519228935	-0.011318603530526161	0.00368613563477993	0.006916835438460112	0.005209165159612894	-0.005964628886431456	-0.004987048916518688	-0.016199488192796707	0.0035517069045454264	0.017622925341129303	0.0008482015691697598	-0.004884572699666023	-0.007322235032916069	0.0024551069363951683	0.004079980310052633	0.024875523522496223	-0.013301602564752102	-0.003843029960989952	-0.00949922576546669	-0.008010945282876492	-0.013328677974641323	-0.005225989501923323	-0.006768004968762398	0.008909055963158607	0.015501623973250389	-0.0009066881029866636	0.013122877106070518	-0.015676626935601234	0.015304647386074066	-0.0035468703135848045	-0.005513206589967012	0.003563770791515708	0.01123018004000187	-0.0198066346347332	-0.008103887550532818	-9.490842057857662e-05	0.03496339172124863	0.01408696360886097	-0.005202022846788168	0.001825960585847497	0.007101705297827721	-0.014062726870179176	0.0006318853702396154	-0.01614448055624962	0.01224178820848465	-0.0018715454498305917	-0.006773525383323431	0.018593503162264824	-0.023567724972963333	-0.018747305497527122	-0.04664527252316475	0.0025499386247247458	0.017260588705539703	-0.024103805422782898	-0.013184333220124245	-0.005345009732991457	-0.014894610270857811	0.01746535673737526	-0.012007218785583973	-0.006040002219378948	-0.015404674224555492	0.014988284558057785	-0.005374948959797621	-0.01055012084543705	0.0013009874382987618	0.00972900353372097	0.010835392400622368	0.011314007453620434	0.004541009198874235	0.001877939677797258	-0.010961980558931828	-0.0005444990820251405	0.014984025619924068	0.01753123104572296	0.005071860738098621	-0.01512477733194828	0.013551026582717896	-0.0009316957439295948	-0.0032567421440035105	-0.006497628521174192	-0.002128245308995247	-0.02265922725200653	0.016659673303365707	-0.033494725823402405	-0.0005646948120556772	-0.011152826249599457	0.011587846092879772	0.029683638364076614	-0.03905421495437622	0.030229173600673676	-0.023750852793455124	-0.02580321952700615	-0.02556520700454712	0.00034865582711063325	-0.007390144746750593	0.008535359054803848	0.004838653840124607	-0.0027986217755824327	0.00024140636378433555	-0.013909301720559597	0.012176178395748138	0.015931544825434685	0.009401164017617702	-0.002859494648873806	0.011396101675927639	0.018009435385465622	-0.0207870714366436	0.006804351229220629	0.02157345414161682	-0.020908266305923462	0.0030906812753528357	0.0009781895205378532	0.014940446242690086	0.01456052903085947	0.016515633091330528	0.0027998979203402996	-0.1719706654548645	0.008167027495801449	-0.013131717219948769	0.0015142762567847967	-0.005051520653069019	-0.010907274670898914	0.005872908513993025	0.01051244605332613	0.007869315333664417	-0.1426529437303543	0.009683200158178806	-0.006084872409701347	-0.010040037333965302	3.733674748218618e-05	-0.014065821655094624	0.017747480422258377	-0.034093476831912994	-0.008982686325907707	-0.005708110984414816	-0.0019341341685503721	0.014480117708444595	-0.008176691830158234	-0.0021025652531534433	-0.013662518933415413	-0.0077536036260426044	0.018350424244999886	0.014478523284196854	-0.007985259406268597	-0.012388719245791435	0.0036662800703197718	-0.006641354877501726	-0.03415963426232338	0.013339496217668056	-0.015058272518217564	0.013984349556267262	0.008677614852786064	-0.0015154429711401463	0.01620645262300968	0.0024302236270159483	0.018315598368644714	0.013060375116765499	0.010145768523216248	0.007272728718817234	0.01804499328136444	-0.004293389152735472	-0.0007409309619106352	0.005234384443610907	-0.011839089915156364	0.017295734956860542	0.007821972481906414	-0.02610033005475998	-0.01236665528267622	-0.007955730892717838	0.007355686742812395	-0.0035022569354623556	0.005131603218615055	-0.7305145263671875	-0.00550420954823494	-0.0024372900370508432	-0.011908981017768383	-0.007479123771190643	-0.010622352361679077	-0.008082825690507889	0.00260768155567348	0.004851568024605513	-0.0319787859916687	0.027241434901952744	0.001179413520731032	0.013890077359974384	-0.006707729771733284	-0.017850590869784355	-0.007559983991086483	-0.009467100724577904	-0.019616957753896713	0.0017959449905902147	-0.009845639578998089	-3.409063720027916e-05	0.014930394478142262	0.018841905519366264	0.008673961274325848	0.010089118964970112	1.1000090125889983e-05	-0.008185273967683315	-0.011005238629877567	-0.11653092503547668	0.016271693632006645	-0.005110686179250479	0.01182591263204813	0.00094912841450423	-0.005853605456650257	-0.003421319415792823	0.0022654549684375525	-0.0029471232555806637	-0.02190457098186016	0.07691725343465805	-0.01374420989304781	-0.07125765830278397	-0.02479991689324379	0.009464901871979237	0.0034040422178804874	0.022688521072268486	0.009375937283039093	-0.01914815604686737	0.012919491156935692	0.0020214002579450607	0.02901066094636917	0.006027297582477331	-0.003411978716030717	-0.01964046247303486	0.015299455262720585	0.03396895155310631	0.010684655979275703	-0.004207271616905928	0.0015475560212507844	0.0004938336205668747	0.014096991159021854	-0.004046529997140169
DUMMY_H2	0.0014584185555577278	0.021276235580444336	-0.005047752521932125	0.005865131970494986	0.012691378593444824	-0.0023173692170530558	0.005451100412756205	0.01505888532847166	-0.03443900868296623	0.00940303597599268	0.006844699382781982	-0.005566093139350414	0.0005174874095246196	-0.013062804006040096	0.03282791003584862	0.008755453862249851	0.0186087004840374	-0.0197988860309124	-0.00548890046775341	0.03621719777584076	-0.002066881861537695	0.007086776662617922	0.0033347781281918287	0.0030462141148746014	0.02979111671447754	0.036295607686042786	0.005013195797801018	0.028444310650229454	-0.014775929972529411	-0.0009759000386111438	-0.014112548902630806	0.01229884009808302	-0.0042037139646708965	0.0018485101172700524	0.04025286063551903	-0.03240146487951279	0.012800853699445724	-0.012872555293142796	0.015111004933714867	0.002457562368363142	-0.0169978104531765	0.0014068755554035306	-0.004817396402359009	0.0008367944974452257	-0.016124675050377846	0.011840474791824818	0.012821928597986698	-0.0010060974163934588	0.02865745685994625	-0.008983437903225422	-0.000818180909845978	0.003047264413908124	-0.010360040701925755	0.0017371780704706907	0.007893923670053482	-0.009150469675660133	-0.012552917003631592	-0.011940314434468746	0.0012426221510395408	-0.004837187007069588	-0.005465213675051928	-0.023481441661715508	0.013787864707410336	0.014899438247084618	0.00604399386793375	0.003829225432127714	0.035318173468112946	0.0019016512669622898	0.020970627665519714	0.018179576843976974	0.0038806123193353415	0.01168997772037983	0.007118615787476301	0.010422357358038425	0.027277182787656784	0.0034832411911338568	-0.009913420304656029	0.004244905896484852	0.005236408673226833	-0.025752486661076546	-0.007689230609685183	-0.010259917937219143	-0.008301486261188984	-0.005107717122882605	-0.005606991704553366	-0.006045253481715918	0.019909357652068138	0.016221871599555016	-0.010201841592788696	0.019207509234547615	0.0056404974311590195	-0.01687450148165226	0.013388175517320633	-0.006213610991835594	-0.007461993955075741	0.022687794640660286	-0.009443046525120735	0.013066877610981464	-0.0017712408443912864	-0.011953797191381454	-0.031741563230752945	-0.020977867767214775	-0.0004695579409599304	0.010496760718524456	-0.004011300392448902	0.010450560599565506	0.006084942724555731	-0.01322766300290823	-0.013418931514024734	0.012948344461619854	-0.009895429015159607	-0.008618917316198349	0.01123508159071207	0.022042997181415558	0.013335548341274261	-0.004598176572471857	-0.0025821663439273834	-0.006405877880752087	0.006653609685599804	0.028673680499196053	0.008240055292844772	0.002606795635074377	-0.006501896772533655	0.01150700356811285	0.0051393467001616955	0.01285532396286726	0.0014167892513796687	0.001350172096863389	-0.013017668388783932	-0.02490968629717827	-0.0030962044838815928	-0.02388216182589531	0.01900562457740307	0.015159900300204754	-0.013858762569725513	-4.138175063417293e-05	-0.008288637734949589	0.005721849389374256	0.020108606666326523	-0.0029205442406237125	0.01082285400480032	-0.006145070306956768	0.003131875302642584	0.003174600889906287	-0.0012531670508906245	-0.010930710472166538	0.01943671889603138	-0.006148015148937702	0.01827066019177437	0.015917789191007614	0.013894932344555855	-0.010877757333219051	0.006877429783344269	-0.011136695742607117	-0.0034133191220462322	-0.018242334946990013	-0.002057720208540559	0.011116516776382923	-0.010368486866354942	0.008892354555428028	0.012444406747817993	0.0008751981076784432	-0.027733908966183662	0.006339851301163435	0.030420541763305664	0.0002900400140788406	-0.004522980656474829	0.0017037177458405495	-0.004253552295267582	0.01808326505124569	0.0015971205430105329	-0.0017138180555775762	-0.009258822537958622	0.005535182077437639	0.029533714056015015	0.0022956752218306065	-0.00925445556640625	0.00686045503243804	0.0018921684240922332	0.015235867351293564	-0.0055058859288692474	0.005368198733776808	0.008637385442852974	0.005712941288948059	-0.02566944807767868	0.018736597150564194	0.002070249058306217	0.03391089290380478	-0.010962233878672123	-2.286370317960973e-06	0.024027545005083084	0.0062762838788330555	0.022476186975836754	0.00022949518461246043	-0.018755286931991577	-0.0005322498036548495	0.0111647704616189	0.0014303263742476702	0.0029751979745924473	0.011258150450885296	0.012640770524740219	-0.009474647231400013	0.007770831231027842	0.015711724758148193	0.008959811180830002	0.022868942469358444	-0.012943440116941929	0.008015332743525505	0.0016326670302078128	-0.014293733984231949	-0.011904153972864151	0.00525482464581728	0.009962525218725204	0.0024916722904890776	-0.014666097238659859	0.005998335778713226	-0.004819771274924278	0.002759122522547841	0.0059163994155824184	0.014973202720284462	-0.019175944849848747	-0.008679499849677086	-0.001978443469852209	0.0015701536322012544	0.010698569007217884	0.00044534876360557973	0.019171329215168953	0.010233449749648571	0.0007214600336737931	-0.0030713204760104418	-0.005568366497755051	0.013393857516348362	0.012639111839234829	-0.003353708889335394	0.00817622896283865	-0.0002917021920438856	0.016323896124958992	0.001822186983190477	0.00011660259769996628	-0.007398439571261406	0.011760654859244823	-0.009104711003601551	-0.003535892814397812	-0.01148751936852932	0.001698662294074893	-0.00230421987362206	0.013090945780277252	-0.007600179873406887	-0.0022391604725271463	0.01106591522693634	0.020796889439225197	-0.003932588268071413	-0.018742458894848824	0.011758224107325077	0.019266357645392418	-0.02912452630698681	0.014151603914797306	0.006702897138893604	-0.015968572348356247	0.029316725209355354	-0.0119790593162179	0.1631546914577484	-0.020610468462109566	0.0009052514797076583	0.010000232607126236	-0.00841971393674612	0.001194080337882042	0.013665959239006042	-0.0018433956429362297	0.015760397538542747	-0.0005691648693755269	0.007289000786840916	0.0019414646085351706	-0.026727495715022087	-0.006508314050734043	0.009163988754153252	-0.011898985132575035	0.004698989447206259	-0.01150469109416008	-0.0016908175311982632	0.0096572395414114	-0.027188565582036972	0.01815500296652317	0.008450346067547798	0.004530026111751795	-0.01078744325786829	-0.011437087319791317	-0.011298189871013165	0.012988876551389694	0.009647625498473644	-0.01769726537168026	0.006914863828569651	-0.027944909408688545	-0.017518507316708565	0.0008319136104546487	-0.0010829034727066755	-0.010929595679044724	0.008401657454669476	0.017253337427973747	-0.017192216590046883	0.01003994606435299	0.0017710167448967695	0.01069535780698061	0.018151987344026566	0.010812484659254551	0.0015668413834646344	0.0013060120400041342	0.0067215473391115665	0.0009361422271467745	0.01968235895037651	0.004146061837673187	-0.018547987565398216	-0.0017379195196554065	-0.010625950060784817	-0.026058563962578773	-0.022379251196980476	0.007483950816094875	0.0014482943806797266	0.005106112454086542	-0.008141408674418926	0.00322865042835474	-0.011505046859383583	0.011066591367125511	0.003630140796303749	-0.003820616053417325	-0.008566880598664284	-0.009391091763973236	-0.005708718206733465	-0.006815540138632059	-0.015261187218129635	0.005621520336717367	0.00337845366448164	0.0199941024184227	0.014022697694599628	-0.06087270379066467	-0.017631707713007927	-0.0019125419203191996	0.010559969581663609	0.0006833745865151286	-0.005036435090005398	0.007550806738436222	0.008988793008029461	-0.0027609507087618113	-0.016916384920477867	0.007054021582007408	-0.003453755285590887	-0.0025040723849087954	0.02425268106162548	-0.013585733249783516	0.0018892580410465598	-0.006228955462574959	0.009656369686126709	0.0007482669316232204	0.026083700358867645	0.013206519186496735	0.028999382629990578	0.002818943466991186	-0.013078420422971249	-0.015551040880382061	-0.0172424353659153	0.024248015135526657	-0.007873987779021263	0.014357314445078373	0.01379300095140934	-0.005819164216518402	0.0012215067399665713	-0.006317039951682091	-0.013768695294857025	-0.01105728279799223	-0.009344266727566719	0.029231149703264236	0.007086374331265688	0.005306834354996681	0.013208644464612007	-0.0018713610479608178	0.02103198878467083	0.015208721160888672	-0.004168615210801363	0.00537387328222394	0.013827363029122353	0.0015773209743201733	-0.018988003954291344	-0.017887763679027557	-0.007745055016130209	0.014785772189497948	0.0185862947255373	0.001506524975411594	-0.003544254694133997	0.011777841486036777	-0.001109836739487946	0.012451876886188984	0.010382573120296001	-0.00873973872512579	-0.013029885478317738	0.013951760716736317	-0.019244851544499397	0.008869308978319168	0.008608450181782246	0.0035912753082811832	-0.008227802813053131	-0.009130382910370827	-0.015163513831794262	-0.0062264129519462585	-0.00046668946743011475	0.0012694571632891893	0.012608268298208714	-0.008446997031569481	0.0037146122194826603	0.017312850803136826	0.006543811876326799	0.006789039820432663	-0.009607824496924877	-0.04634911194443703	-0.009157427586615086	0.008474042639136314	0.03793375939130783	0.0002869105665013194	0.002038809470832348	-0.0006453081732615829	-0.019466282799839973	0.010613108053803444	0.009530806913971901	-0.0057886033318936825	-0.019655654206871986	-0.0017360307974740863	0.0014222485478967428	-0.005568985361605883	0.02501043677330017	-7.499195635318756e-05	-0.01705557107925415	0.025089386850595474	-0.00821209792047739	0.009393678046762943	-0.018435459583997726	0.0177218746393919	0.001341789960861206	-0.007065890356898308	-0.0012961332686245441	0.02394954301416874	-0.008267255499958992	0.04114140197634697	0.0029707930516451597	0.007290760986506939	-0.0020129107870161533	0.036189548671245575	0.001838924246840179	0.0040081157349050045	0.021964944899082184	-0.006901086308062077	0.025161344558000565	-0.01653372496366501	0.012735702097415924	0.004145962186157703	1.9674855593621032e-06	0.002284252317622304	-0.010784958489239216	-0.002297618892043829	0.0043105557560920715	-0.01101318933069706	0.007045391481369734	0.005959297996014357	0.0017013150500133634	-0.012907657772302628	0.017119411379098892	-0.015831507742404938	-0.04048319533467293	-0.016865069046616554	0.007041623815894127	-0.019850999116897583	-0.00866453442722559	-0.0029080717358738184	-0.012015732936561108	0.014622504822909832	0.027285831049084663	0.007724906783550978	0.01664598286151886	-0.007620894815772772	0.013624039478600025	0.003235168056562543	0.0009577289456501603	0.017087625339627266	0.02245919406414032	-0.008022267371416092	0.008067161776125431	-0.001118948101066053	-0.006762410048395395	-0.010234157554805279	0.006157344672828913	0.004480757284909487	0.018169710412621498	0.014490028843283653	0.0011040271492674947	0.016691861674189568	-0.0061837476678192616	-0.0008574645617045462	0.010141715407371521	-0.009192166849970818	-0.015500296838581562	0.03037548065185547	0.024398496374487877	-0.12111001461744308	0.010440886951982975	0.002487543737515807	0.01967165619134903	0.022454142570495605	-0.02135390415787697	-0.003563178237527609	0.00946809072047472	0.023885954171419144	0.013765727169811726	-0.002250362653285265	0.009721318259835243	-0.01587461493909359	0.007999204099178314	0.025038577616214752	-0.007481439039111137	0.0014887659344822168	0.008479111827909946	-0.002544619143009186	-0.0203067809343338	0.018663158640265465	0.01171946618705988	1.1652016639709473	0.0011773563455790281	0.007039183285087347	-0.013155495747923851	-0.008703147061169147	0.0058724344708025455	0.005698521621525288	0.003265263279899955	-0.006247215438634157	0.021042972803115845	-0.009631896391510963	-0.011720533482730389	-0.005216656252741814	0.005054342560470104	0.006156033370643854	0.005710287485271692	-0.010945971123874187	0.01303853839635849	0.027620704844594002	-0.013914444483816624	-0.014326346106827259	-0.008699833415448666	0.010380241088569164	0.02698410302400589	-0.00747027900069952	0.04130616784095764	0.09390310198068619	0.0020503560081124306	-0.0025635366328060627	-0.004108514171093702	0.0029137730598449707	-0.005120742600411177	0.018262499943375587	-0.013344088569283485	-0.01676180027425289	0.010546055622398853	0.005522865802049637	0.011478391475975513	-0.004380533471703529	-0.011949748732149601	-0.008068942464888096	0.008792344480752945	-0.011924024671316147	0.008739142678678036	0.04424469172954559	-0.01965852454304695	0.015903625637292862	0.002127240877598524	0.005038371775299311	0.002494178479537368	0.002632928779348731	0.01926604099571705	0.028241846710443497	-0.0018028210615739226	0.002270296448841691	0.04312608763575554	-0.0006426137988455594	-0.021184571087360382	0.011978761292994022	0.011103461496531963	-0.021899333223700523	-0.0029724433552473783	0.0037940468173474073	0.007495408412069082	-0.014708701521158218	-0.009047925472259521	-0.0018987524090334773	0.011215121485292912	-0.008285406045615673	0.01809653453528881	-0.0024061962030828	0.00544982124119997	0.0030389802996069193	0.0017890875460579991	-0.007639487273991108	0.00027338729705661535	-0.003980266395956278	0.01037703175097704	-0.003061160910874605	-0.015193378552794456	0.01550285518169403	0.0018686505500227213	0.004315143451094627	-0.022641535848379135	-0.00564329931512475	-0.011363704688847065	-0.0558001734316349	-0.018938258290290833	0.0010651173070073128	-0.01236625574529171	0.005136569030582905	0.01540044043213129	-0.006444765720516443	0.012606663629412651	0.02411217987537384	-0.018302690237760544	0.02006431110203266	0.0031751322094351053	0.24696852266788483	-0.031229281798005104	-0.008711103349924088	-0.005952589679509401	0.017607461661100388	0.02208111248910427	0.01927693374454975	0.021395308896899223	-0.014454777352511883	0.019720422104001045	-0.006499146576970816	-0.015955518931150436	-0.003988219425082207	-0.004401735030114651	0.009955362416803837	0.0001199638718389906	0.008091066032648087	-0.005977867171168327	-0.008300571702420712	-0.0018653667066246271	-0.004121437203139067	-0.004611262120306492	0.0021643841173499823	-0.019680239260196686	0.01604764349758625	0.011147565208375454	0.02768026664853096	-0.0030698729678988457	0.0005761596839874983	0.015870602801442146	0.01527449768036604	-0.011102275922894478	0.006267653312534094	0.0037105772644281387	0.011163758113980293	-0.003500013379380107	-0.001722965040244162	0.011571641080081463	0.015080707147717476	-0.02630094438791275	-0.005347247235476971	0.007335348054766655	-0.01749356836080551	-0.008320209570229053	0.004295473452657461	-0.005130748264491558	0.003275639610365033	0.003523297607898712	-0.022419653832912445	0.02644542045891285	0.021354330703616142	0.007031287997961044	0.007344461511820555	0.003728264244273305	0.00977036077529192	0.00979658029973507	-0.0216329675167799	-0.8034068942070007	0.018596304580569267	0.005917663685977459	-0.006371104624122381	-0.004638366866856813	0.00205952487885952	0.010692896321415901	-0.002541024936363101	-0.010393534786999226	-0.010839661583304405	-0.00271935504861176	-0.017231065779924393	-0.007008576765656471	-0.0003219775971956551	-0.022794868797063828	0.004074810538440943	-0.004101613536477089	-0.02650301717221737	0.009400606155395508	-0.011234663426876068	0.012382535263895988	-0.031325776129961014	-0.15219587087631226	-0.6623919010162354	-0.004759433679282665	0.004556565545499325	-0.025058668106794357	-0.006118909455835819	0.0018332407344132662	-0.018647562712430954	-0.021638454869389534	-0.015617093071341515	-0.007957628928124905	0.008247669786214828	-0.00207290961407125	-0.0021588855888694525	-0.026479599997401237	-0.02298102155327797	-0.017944997176527977	0.017674272879958153	0.00856903288513422	-0.006570009980350733	0.019913287833333015	0.0017788695404306054	-0.017823848873376846	-0.0013015796430408955	-0.0060966177843511105	-0.003888537175953388	0.0024493145756423473	0.02117299474775791	0.011460409499704838	-0.012813180685043335	0.007847398519515991	-0.03204377740621567	0.02397405356168747	0.002557326341047883	0.005061599425971508	0.015060956589877605	-0.00990530475974083	-0.003545994870364666	-0.0015729783335700631	0.007112969644367695	0.02363361045718193	0.010842334479093552	-0.018197085708379745	-0.014113267883658409	-0.006311379373073578	-0.011475847102701664	0.0010353537509217858	0.01063371729105711	-0.02024242840707302	0.005156851839274168	-0.00721758184954524	-0.0038237934932112694	-0.012717768549919128	-0.010641667060554028	-0.0018067228375002742	-0.022309644147753716	0.004536025691777468	0.003394641214981675	-0.006211116909980774	0.021158846095204353	0.0093003548681736	-0.005330475978553295	-0.021033119410276413	-0.013709955848753452	0.021690458059310913	-0.013049093075096607	0.0017059172969311476	0.001328153652139008	-0.03164372965693474	0.006095453165471554	-0.01355983316898346	-0.01726648211479187	-0.003481611143797636	0.012391134165227413	0.0018042945303022861	0.0036912919022142887	-0.014811873435974121	0.024373620748519897	-0.0042058005928993225	0.010720949620008469	0.00010986599954776466	-0.008261166512966156	-0.018342558294534683	-0.018703538924455643	-0.024089587852358818	0.002949899761006236	0.003966334275901318	-0.007113916799426079	0.0006679509533569217	-0.004583126399666071	0.014122514985501766	0.009164873510599136	0.0007806219509802759	0.018529454246163368	0.016034351661801338	0.004969678819179535	0.019106516614556313	0.010822896845638752	0.0060837301425635815	-0.005345887504518032	-0.026442183181643486	-0.013399505987763405	-0.013773591257631779	0.006707087159156799	0.009810086339712143	-0.00033725451794452965	-0.01087744440883398	-0.0033656267914921045	-0.006465534213930368	0.02049967646598816	0.0037115816958248615	0.020429702475667	0.029133139178156853	0.023100968450307846	0.017910705879330635	-0.020242344588041306	0.028751427307724953	0.005588609725236893	0.024202857166528702	-0.013896660879254341	0.014474759809672832	-0.027407359331846237	0.0058240084908902645	0.015829743817448616	-0.018291974440217018	-0.02531387098133564	-0.00036615223507396877	0.008676058612763882	0.007899514399468899	0.02211918495595455	-0.0007604906568303704	-0.012513109482824802	-0.006795017514377832	-0.016381293535232544	0.018349014222621918	-0.0014691110700368881	-0.004117653239518404	-0.031110471114516258	-0.01706496626138687	-0.0077340807765722275	-0.005621084477752447	0.011519934050738811	0.004619014915078878	-0.016760466620326042	0.004196661524474621	-0.007649910636246204	-0.0037097642198204994	-0.008841173723340034	-0.03467673063278198	-0.023401329293847084	0.003328148741275072	-0.002374824834987521	0.017423441633582115	-0.008875778876245022	-0.010431086644530296	0.01656617969274521	0.0020904287230223417	-0.00220313249155879	0.028740951791405678	0.011624620296061039	0.0033068039920181036	0.023892594501376152	0.002893205266445875	-0.00016730715287849307	-0.009756246581673622	0.004681289196014404	0.016705090180039406	-0.015232102945446968	0.023241473361849785	0.011629914864897728	0.0013512910809367895	-0.006140589248389006	0.042562104761600494	-0.010930311866104603	0.028990207239985466	0.0058257607743144035	0.03882236406207085	0.007096763234585524	-0.0162704735994339	0.011278512887656689	-0.019427940249443054	-0.020407026633620262	0.007432872895151377	-0.013185208663344383	-0.01182170957326889	-0.001893201726488769	0.009221610613167286	0.010044493712484837	0.00170124473515898	-0.014314130879938602	-0.01989923231303692	-0.03508198633790016	-0.005666008219122887	0.004603905137628317	0.007242161780595779	-0.014409460127353668	0.009963507764041424	-0.004258368629962206	-0.024648312479257584	0.004367508459836245	0.0024805073626339436	0.005439800675958395	-0.017575474455952644	-0.013634828850626945	0.011739334091544151	-0.009990110993385315	0.016902124509215355	0.024524658918380737	0.007829545065760612	-0.012312604114413261	0.00546784233301878	0.0004774546541739255	0.011233054101467133	0.013167387805879116	-0.004973823670297861	0.009214009158313274	-0.006687054876238108	-0.005495372228324413	0.005496183875948191	-0.014940224587917328	0.005684053525328636	-0.011637072078883648	0.006263310555368662	0.005156390834599733	0.006320073734968901	-0.008120574057102203	-0.003868250409141183	-0.018750466406345367	0.0017091514309868217	0.01580396480858326	0.00037647466524504125	-0.008063262328505516	-0.004807963501662016	0.0023572014179080725	0.008562224917113781	0.026588181033730507	-0.014528143219649792	-0.003170399460941553	-0.00887130293995142	-0.008327019400894642	-0.01186626497656107	-0.003338485024869442	-0.00708233704790473	0.010412851348519325	0.016932129859924316	0.0016490027774125338	0.012185401283204556	-0.01384808775037527	0.0168160367757082	-0.0015618252800777555	-0.004844411741942167	0.007121553644537926	0.008390595205128193	-0.019121479243040085	-0.004207066260278225	-0.0028552452567964792	0.03359166160225868	0.010316402651369572	-0.0035179322585463524	0.006352240219712257	0.008450223132967949	-0.013533241115510464	0.002898331731557846	-0.013993355445563793	0.011398223228752613	0.0010143272811546922	-0.00877939723432064	0.01879306137561798	-0.02295181155204773	-0.017877181991934776	-0.04430508613586426	-0.002195034408941865	0.019270658493041992	-0.02501176856458187	-0.013348356820642948	-0.0013556228950619698	-0.015782713890075684	0.014337874948978424	-0.012905440293252468	-0.004505757708102465	-0.012060943990945816	0.012302587740123272	-0.006591673009097576	-0.006985899060964584	-0.0005412718164734542	0.009007043205201626	0.010409052483737469	0.009284812957048416	0.004399485420435667	0.002792523242533207	-0.01239776611328125	0.0034862577449530363	0.018762243911623955	0.022069083526730537	0.006039470434188843	-0.013442542403936386	0.013413770124316216	-0.002535161329433322	-0.003639317350462079	-0.0037562812212854624	-0.002041744766756892	-0.01973838545382023	0.016733482480049133	-0.03098137676715851	-0.000562470406293869	-0.013530797325074673	0.007926455698907375	0.028199100866913795	-0.041958726942539215	0.030192865058779716	-0.026967177167534828	-0.027228210121393204	-0.022870389744639397	0.0018475702963769436	-0.005952867679297924	0.004910831805318594	0.00519911665469408	0.00032144083525054157	0.002067551715299487	-0.012236826121807098	0.01330425962805748	0.012960877269506454	0.010162758640944958	-0.00497653242200613	0.0075795529410243034	0.017791973426938057	-0.02060544863343239	0.009671412408351898	0.023086460307240486	-0.022216888144612312	0.0024114300031214952	0.002022517379373312	0.016981009393930435	0.01719346083700657	0.015694111585617065	0.002609984017908573	-0.15150007605552673	0.007024115417152643	-0.01335463672876358	-0.00017843523528426886	-0.004377342294901609	-0.008453481830656528	0.006315452512353659	0.012205367907881737	0.004250025376677513	-0.12600605189800262	0.0123699139803648	-0.010046123526990414	-0.011752106249332428	0.0020243905019015074	-0.011145543307065964	0.015913357958197594	-0.03230886533856392	-0.007170668803155422	-0.009001211263239384	-0.0031909120734781027	0.013171791099011898	-0.011385724879801273	-0.0035108483862131834	-0.009780149906873703	-0.008997107855975628	0.014915086328983307	0.012181850150227547	-0.001753006363287568	-0.010339738801121712	0.007641043048352003	-0.008408200927078724	-0.03640047460794449	0.014505774714052677	-0.017767393961548805	0.016492318361997604	0.009649264626204967	-0.0013352730311453342	0.014432553201913834	0.0013762910384684801	0.01265895739197731	0.014642512425780296	0.014280174858868122	0.008757567033171654	0.020075753331184387	-0.006266919896006584	-0.00162388919852674	0.0032584513537585735	-0.009350841864943504	0.017561009153723717	0.0059216078370809555	-0.02879629097878933	-0.011169462464749813	-0.007947138510644436	0.0022899240721017122	-0.002268396317958832	0.0030910116620361805	-0.749605655670166	-0.005016545299440622	-0.0037151677533984184	-0.01164144929498434	-0.009808303788304329	-0.012207593768835068	-0.010156989097595215	0.004673350602388382	0.003714475082233548	-0.032535370439291	0.025303158909082413	0.004334627650678158	0.01446277555078268	-0.004656838718801737	-0.022887039929628372	-0.00776933366432786	-0.010715658776462078	-0.019331274554133415	-0.0011411167215555906	-0.012644989416003227	-0.0026382345240563154	0.01649916172027588	0.019525866955518723	0.006052511744201183	0.007536928169429302	0.0013623707927763462	-0.00948050431907177	-0.010051942430436611	-0.11695510149002075	0.017628449946641922	0.0003233675961382687	0.010059412568807602	0.0017469878075644374	-0.006068022921681404	-0.004904469475150108	0.003747510490939021	-0.007376137655228376	-0.021520914509892464	0.08303927630186081	-0.012447807006537914	-0.06768149882555008	-0.02519828826189041	0.010744569823145866	0.004084461368620396	0.022487184032797813	0.013004718348383904	-0.01680183783173561	0.01178000308573246	0.0022099048364907503	0.029955299571156502	0.008718480356037617	-0.000968201900832355	-0.024058109149336815	0.011906481347978115	0.03775523230433464	0.010234084911644459	-0.0031922291964292526	0.0027312100864946842	0.001383237773552537	0.017355039715766907	-0.003291481640189886
DUMMY_H3	0.004622289910912514	0.024404574185609818	-0.011193035170435905	0.01054465677589178	0.01735772006213665	0.006887625902891159	0.008249109610915184	0.017349855974316597	-0.02849884144961834	0.011626687832176685	-0.0008348766714334488	-0.003224325133487582	0.0026240337174385786	-0.01497128326445818	0.03167929872870445	0.013785803690552711	0.017981816083192825	-0.01853533834218979	-0.00612579146400094	0.029353193938732147	-0.0017645064508542418	0.006528278812766075	0.013441449962556362	0.0009822745341807604	0.03411658853292465	0.04219729080796242	0.0025656865909695625	0.02065001241862774	-0.009927564300596714	-0.0009378714021295309	-0.012513377703726292	0.014628825709223747	-0.0010349630611017346	0.0019951374270021915	0.048214253038167953	-0.03243068978190422	0.005736442748457193	-0.0140517707914114	0.022840211167931557	-0.005246996879577637	-0.012673452496528625	-0.0036936993710696697	-0.009712505154311657	0.0002440610114717856	-0.009862782433629036	0.012678559869527817	0.017391715198755264	0.004139576572924852	0.026788121089339256	-0.01041494868695736	-0.002567470772191882	0.004739093128591776	-0.01011947263032198	-0.001022335491143167	0.008027584291994572	-0.005778586026281118	-0.011567463167011738	-0.010775693692266941	0.0051186406053602695	-0.008201108314096928	-0.002433351008221507	-0.025538325309753418	0.013304345309734344	0.014610586687922478	0.006420960649847984	0.002701194491237402	0.03710538521409035	0.003970201592892408	0.019876595586538315	0.026063216850161552	0.00025011369143612683	0.015624072402715683	0.013515527360141277	0.01272119302302599	0.029601002112030983	0.003998719621449709	-0.012984194792807102	-0.0018061718437820673	0.003675453132018447	-0.031108148396015167	-0.010922914370894432	-0.0061919731087982655	-0.012692337855696678	-0.004188621882349253	-0.012435266748070717	-0.006545412354171276	0.022900622338056564	0.018765797838568687	-0.010304154828190804	0.014546887949109077	0.0024463236331939697	-0.022275475785136223	0.0174833033233881	-0.004254166968166828	-0.007192444987595081	0.025383053347468376	-0.01064667385071516	0.014136258512735367	-0.005435608327388763	-0.015023439191281796	-0.035309430211782455	-0.024510115385055542	-0.0011689560487866402	0.014386331662535667	-0.0033225032966583967	0.008364211767911911	0.007538875564932823	-0.015156992711126804	-0.017003925517201424	0.021398404613137245	-0.009725094772875309	-0.0027807813603430986	0.01451088860630989	0.028691155835986137	0.015950677916407585	-0.0008667174261063337	-0.005997928790748119	-0.003632017644122243	0.007339467294514179	0.030489999800920486	0.005901019088923931	0.009321802295744419	-0.007891462184488773	0.01027686521410942	0.00449250778183341	0.015000063925981522	-0.00023627275368198752	0.00286754104308784	-0.01712142489850521	-0.025417977944016457	-0.001944810152053833	-0.026179324835538864	0.025564316660165787	0.01597806252539158	-0.009716499596834183	-0.0005637581343762577	-0.003694158745929599	0.003229560563340783	0.024772681295871735	-0.008780285716056824	0.012453651987016201	-0.008087694644927979	0.0039238701574504375	-0.0013898685574531555	0.0008764490485191345	-0.010968485847115517	0.020866500213742256	-0.0005727937095798552	0.021173419430851936	0.012829636223614216	0.015883374959230423	-0.010594616644084454	0.008743357844650745	-0.012779222801327705	-0.0008090827031992376	-0.01883888617157936	-0.004762027878314257	0.015326428227126598	-0.007395346648991108	0.007760506123304367	0.022235065698623657	0.0061188084073364735	-0.030520152300596237	0.007998290471732616	0.033792588859796524	0.006324924528598785	-0.011089357547461987	-8.68861170602031e-05	-0.00719274440780282	0.012876328080892563	-0.004477528389543295	-0.0001662726717768237	-0.014570578932762146	0.00924967136234045	0.028470687568187714	0.0038600044790655375	-0.012296924367547035	0.008411199785768986	0.008590119890868664	0.009881461970508099	-0.011783014051616192	0.004212369676679373	0.013403450138866901	0.00500267231836915	-0.02473202347755432	0.015324466861784458	0.004177707247436047	0.03269078955054283	-0.01120050996541977	-0.004170506726950407	0.01873517967760563	0.0069710975512862206	0.02310190536081791	0.0017641501035541296	-0.02193424664437771	-0.0005011618486605585	0.009837130084633827	-0.0008103009895421565	0.00022927182726562023	0.014494197443127632	0.009145540185272694	-0.007074169348925352	0.001622609794139862	0.01910250633955002	0.009167494252324104	0.02390197105705738	-0.014871198683977127	0.004732538014650345	-0.0031563977245241404	-0.00840339157730341	-0.006460488773882389	0.010267720557749271	0.013177641667425632	0.0003026534686796367	-0.01828862354159355	0.0078860679641366	-0.0029850094579160213	0.004167450591921806	0.004967756103724241	0.010691015981137753	-0.013529734686017036	-0.00622167345136404	-0.0007767722709104419	0.004458411131054163	0.010864312760531902	0.0008204338955692947	0.01675751991569996	0.01634351536631584	-0.003962556831538677	0.004363256506621838	-0.008884645067155361	0.012240332551300526	0.013846248388290405	-0.009208702482283115	0.009550678543746471	0.0031657295767217875	0.02030188776552677	-0.00042287149699404836	0.0005838258657604456	-0.005857281852513552	0.015073103830218315	-0.00498751737177372	-0.001665402203798294	-0.012291189283132553	0.008341185748577118	-0.0029155206866562366	0.01836688257753849	-0.005407647229731083	-0.0020286976359784603	0.007523574400693178	0.025511080399155617	-0.006841226015239954	-0.027387674897909164	0.007434793747961521	0.019305339083075523	-0.03489219769835472	0.011503888294100761	0.00783939752727747	-0.019700419157743454	0.02440468594431877	-0.011649574153125286	0.16497398912906647	-0.023051472380757332	-0.0005110800848342478	0.0067137922160327435	-0.007357398979365826	0.0020948639139533043	0.00763138709589839	0.0024329139851033688	0.027699783444404602	0.001701532513834536	0.008377892896533012	0.005338746123015881	-0.020689770579338074	-0.0013307129265740514	-0.0031625195406377316	-0.011986851692199707	0.009470845572650433	-0.011784977279603481	-0.008004166185855865	0.009990506805479527	-0.023363400250673294	0.025438986718654633	0.00641749007627368	-0.0014283700147643685	-0.009244007058441639	-0.01462788786739111	-0.009904489852488041	0.011810277588665485	0.011649182066321373	-0.012036081403493881	0.009081791155040264	-0.03470781072974205	-0.011221146211028099	0.0037536113522946835	-0.00012362028064671904	-0.012392500415444374	0.006697263568639755	0.0198200810700655	-0.015720309689641	0.01970774680376053	0.004054904915392399	0.012950316071510315	0.018773773685097694	0.008485224097967148	-0.0005751139833591878	0.00025647925212979317	0.011508602648973465	-0.0006416113465093076	0.019699716940522194	0.010270915925502777	-0.018578367307782173	0.0011061683762818575	-0.012393188662827015	-0.02739502117037773	-0.028950970619916916	0.01332548726350069	0.00595901207998395	0.0004819989262614399	-0.0045089987106621265	0.002476032357662916	-0.009988459758460522	0.014417488127946854	0.0105433389544487	-0.006178367417305708	-0.009808770380914211	-0.00844945665448904	-0.016366416588425636	-0.01105500478297472	-0.0162361953407526	0.002388471271842718	0.0066812913864851	0.023407336324453354	0.019094979390501976	-0.06302642822265625	-0.018651513382792473	-0.008645446971058846	0.011389986611902714	0.004651558585464954	-0.009816771373152733	0.003386806696653366	0.017050743103027344	-0.0020827269181609154	-0.017144126817584038	0.0030979528091847897	-0.004620764404535294	-0.006659504491835833	0.025026945397257805	-0.01358042936772108	-0.0001834014692576602	-0.004033678211271763	0.0172271728515625	0.0018820654368028045	0.02720782160758972	0.0168335922062397	0.03094286285340786	-0.0029100081883370876	-0.01425788551568985	-0.014849424362182617	-0.019445788115262985	0.027544399723410606	-0.009164853021502495	0.015480045229196548	0.013644623570144176	-0.0037511761765927076	-0.0016117411432787776	-0.008624257519841194	-0.01277772244066	-0.0049606673419475555	-0.01454226765781641	0.022731831297278404	0.009143182076513767	0.0053183711133897305	0.018827125430107117	0.000726721656974405	0.020325521007180214	0.013631590642035007	-0.0014854129403829575	0.007298160344362259	0.010759478434920311	0.004969406872987747	-0.018723895773291588	-0.011162112466990948	-0.012969929724931717	0.012154541909694672	0.014274146407842636	0.0013879677280783653	-0.005973104853183031	0.012978162616491318	-0.0029124475549906492	0.015141441486775875	0.011968670412898064	-0.009500917978584766	-0.01757241226732731	0.018985310569405556	-0.019865062087774277	0.009725818410515785	0.006164461839944124	0.0028032732661813498	-0.00941427145153284	-0.005131853278726339	-0.015030939131975174	-0.007023700047284365	0.0007752857054583728	-0.00013544282410293818	0.006023337598890066	-0.013982822187244892	0.002855427796021104	0.01636309176683426	0.0010856722947210073	0.0029772277921438217	-0.005981399677693844	-0.04767780750989914	-0.008405678905546665	0.0059319171123206615	0.031095797196030617	-0.003229893045499921	0.0013457417953759432	0.005797401536256075	-0.019522622227668762	0.007575306110084057	0.013095990754663944	-0.008044489659368992	-0.01003247033804655	-0.005002891179174185	0.0038377612363547087	-0.0008932060445658863	0.03042539209127426	-0.0016027393285185099	-0.01658116839826107	0.02573179453611374	-0.007359722629189491	0.011296767741441727	-0.010770337656140327	0.012703352607786655	0.0009979394963011146	-0.009116282686591148	-0.0016082010697573423	0.025774657726287842	-0.012960863299667835	0.045901380479335785	0.0015325041022151709	0.00963646825402975	-0.0009025978506542742	0.04067007824778557	0.00407822709530592	0.013196722604334354	0.018012013286352158	-0.010937931016087532	0.02710488811135292	-0.013069604523479939	0.009478977881371975	0.002852782839909196	-0.004000175278633833	0.0012915990082547069	-0.010437355376780033	1.4443482143633446e-07	-0.0034613332245498896	-0.006864721421152353	0.009446702897548676	0.0038696511182934046	-0.005744717083871365	-0.0217098668217659	0.021103093400597572	-0.015794066712260246	-0.042915645986795425	-0.018657758831977844	0.0027359123341739178	-0.016083529219031334	-0.010433443821966648	-0.0009158694301731884	-0.006909456569701433	0.01700807362794876	0.026747969910502434	0.005190752446651459	0.015245110727846622	-0.000827843090519309	0.014532440342009068	0.0002476594818290323	-0.0031715696677565575	0.0098044378682971	0.020430108532309532	-0.0010777557035908103	0.005132355727255344	0.0013250724878162146	0.000564571819268167	-0.01035909540951252	0.004663974978029728	0.003923138603568077	0.01690392568707466	0.010822596028447151	-0.00148903694935143	0.020010463893413544	-0.00044582565897144377	-0.006102814804762602	0.01866672746837139	-0.007131053134799004	-0.02068237029016018	0.03187870234251022	0.022392937913537025	-0.14188124239444733	0.009995028376579285	-0.0017954513896256685	0.020790139213204384	0.021788310259580612	-0.023525208234786987	-0.002114781178534031	0.01645493134856224	0.021495340391993523	0.014177149161696434	0.000481909402878955	0.011710548773407936	-0.014406437985599041	0.010262435302138329	0.023602556437253952	-0.011341119185090065	-0.0008823551470413804	0.0051099993288517	-0.0015270381700247526	-0.022496255114674568	0.015303775668144226	0.007599807810038328	1.228263020515442	-0.0005456489743664861	0.012188632972538471	-0.017278870567679405	-0.007877138443291187	0.007296334952116013	3.2678992283763364e-05	0.0009720363887026906	-0.0068689268082380295	0.015952512621879578	-0.011783470399677753	-0.014721746556460857	-0.009192383848130703	0.004071906674653292	0.0038626049645245075	-0.0025155749171972275	-0.011525853537023067	0.009021873585879803	0.02616059221327305	-0.010999399237334728	-0.017163963988423347	-0.011362950317561626	0.013220920227468014	0.02467404678463936	-0.004612479824572802	0.04192497953772545	0.10660552978515625	0.006599363870918751	0.0008266241056844592	-0.002421425189822912	0.004314890597015619	-0.004251649137586355	0.018202586099505424	-0.016885463148355484	-0.020030660554766655	0.018548496067523956	0.0034408136270940304	0.014042825438082218	-0.0005880991229787469	-0.018593663349747658	-0.01364847645163536	0.007835044525563717	-0.018167048692703247	0.007818704470992088	0.03970656916499138	-0.020942868664860725	0.014405269175767899	0.003964558709412813	0.0069037009961903095	-0.0021457066759467125	0.004862843081355095	0.01855960302054882	0.028996754437685013	0.0013252680655568838	-0.0030353632755577564	0.0461440235376358	0.003315572626888752	-0.0257889311760664	0.01906956359744072	0.01631142385303974	-0.022110655903816223	-0.0007208238821476698	0.0017511367332190275	0.0135131711140275	-0.018167415633797646	-0.009291842579841614	0.002122199162840843	0.01213024277240038	-0.013675613328814507	0.01945832185447216	-0.0110770957544446	0.0029555282089859247	0.0009467366617172956	0.00043457280844449997	-0.003010737942531705	0.0023909772280603647	0.002418957883492112	0.009852394461631775	-0.0062085604295134544	-0.014818460680544376	0.017397038638591766	0.0015006831381469965	0.006174798589199781	-0.02302933856844902	-0.0013225153088569641	-0.00916990078985691	-0.06481105089187622	-0.017733832821249962	-0.0006885957554914057	-0.011813325807452202	0.005130487494170666	0.018770938739180565	-0.008600606583058834	0.010001317597925663	0.021659284830093384	-0.01981823518872261	0.016294408589601517	0.0003603214572649449	0.22747565805912018	-0.029165608808398247	-0.008887307718396187	-0.006195269990712404	0.025442490354180336	0.019772686064243317	0.02094884030520916	0.021029673516750336	-0.011722350493073463	0.020517192780971527	-0.0042268503457307816	-0.018614061176776886	-0.0032938707154244184	-0.0033493652008473873	0.005813089665025473	0.0005849167937412858	0.0076164184138178825	-0.0031474565621465445	-0.012753926217556	0.001982844667509198	-0.0009066925849765539	-0.0019147179555147886	0.0006637223996222019	-0.021699782460927963	0.020021243020892143	0.013257148675620556	0.026033056899905205	-0.010197987779974937	0.0036637119483202696	0.016914667561650276	0.013533368706703186	-0.012818463146686554	0.008160472847521305	0.0067284321412444115	0.0034013523254543543	-0.0038124662823975086	0.0005953689687885344	0.0066243973560631275	0.017226723954081535	-0.030756568536162376	-0.0012598589528352022	0.00622078962624073	-0.01346766296774149	-0.009280470199882984	0.00850971881300211	-0.0026570975314825773	0.005121808033436537	0.012437665835022926	-0.02734089270234108	0.02361646667122841	0.022231411188840866	0.00667621660977602	0.006122650112956762	0.003953046165406704	0.010719922371208668	0.009639807045459747	-0.021939510479569435	-0.8706802129745483	0.015811026096343994	0.0024995650164783	-0.010097460821270943	0.001189167145639658	0.004885030910372734	0.012429922819137573	-0.00682877516373992	-0.003002768848091364	-0.009660685434937477	-0.005609402433037758	-0.015756338834762573	-0.0014515856746584177	0.0004500416398514062	-0.02594536729156971	0.005211211740970612	-0.008378906175494194	-0.03270655870437622	0.009983085095882416	-0.013294572941958904	0.01181616261601448	-0.04060572385787964	-0.2086121141910553	-0.6788699626922607	-0.004410128109157085	-8.095391240203753e-05	-0.022840183228254318	-0.0002811614831443876	0.0007135813939385116	-0.0123941944912076	-0.018040558323264122	-0.015678372234106064	-0.00950524490326643	0.009335679933428764	-0.004821192007511854	0.006350252311676741	-0.026999780908226967	-0.02632075361907482	-0.022462809458374977	0.016509274020791054	0.007222101557999849	-0.009978502988815308	0.020909540355205536	0.0017944700084626675	-0.020627688616514206	3.432322773733176e-05	-0.009590555913746357	-0.013618314638733864	-3.744536661542952e-05	0.020932679995894432	0.010672359727323055	-0.01399985421448946	0.006287498865276575	-0.03335629403591156	0.021907994523644447	0.0074981749057769775	0.007981659844517708	0.016919543966650963	-0.009761346504092216	0.0008187090861611068	0.0018147649243474007	0.009845873340964317	0.01892228052020073	0.011442737653851509	-0.02208068035542965	-0.010904870927333832	-0.014023945666849613	-0.016387401148676872	0.001342553528957069	0.010774021968245506	-0.02127310447394848	0.0063246870413422585	-0.007772493176162243	-0.0031623682007193565	-0.017895616590976715	-0.005315486807376146	-0.0032914455514401197	-0.028874779120087624	0.001391580910421908	0.004347262438386679	-0.010081887245178223	0.020146138966083527	0.008393459022045135	-0.0012323203263804317	-0.020186912268400192	-0.011484138667583466	0.024652699008584023	-0.013337157666683197	-0.001178263919427991	0.0011807814007624984	-0.02737489528954029	0.01031432580202818	-0.01039421558380127	-0.01916249468922615	-0.0012701924424618483	0.015284579247236252	0.001282891258597374	-0.004318875726312399	-0.011900907382369041	0.029599638655781746	-0.00888072233647108	0.015777843073010445	0.0027829676400870085	-0.009753181599080563	-0.01532057672739029	-0.01827564649283886	-0.021494068205356598	0.0010310554644092917	0.011947114020586014	-0.0018834767397493124	0.004105530679225922	-0.005151558667421341	0.016351427882909775	0.011457661166787148	-0.0029904076363891363	0.011433537118136883	0.018399016931653023	-0.002023867331445217	0.018625039607286453	0.011414776556193829	0.007087002042680979	-0.003750750096514821	-0.027821388095617294	-0.015674486756324768	-0.013969575986266136	0.009552305564284325	0.012010136619210243	-0.0020216123666614294	-0.01573541946709156	-0.006437736563384533	-0.009130126796662807	0.017578408122062683	0.005180694162845612	0.017712686210870743	0.03348478302359581	0.02378881350159645	0.01755516044795513	-0.02295868471264839	0.030088629573583603	0.010162673890590668	0.02198699302971363	-0.012912080623209476	0.01174063142389059	-0.026227571070194244	0.008388865739107132	0.015213863924145699	-0.021571319550275803	-0.026990331709384918	-0.001917138695716858	0.008609632961452007	0.006464431528002024	0.022255918011069298	-0.0016716168029233813	-0.014215417206287384	-0.0052338954992592335	-0.01840440183877945	0.019880199804902077	-0.0075118932873010635	-0.007289814297109842	-0.030835863202810287	-0.01990053802728653	-0.007136473897844553	-0.010639192536473274	0.015963364392518997	0.00622277706861496	-0.017460238188505173	0.00391530804336071	-0.00952081847935915	-0.006152410060167313	-0.012561146169900894	-0.030376097187399864	-0.02393910475075245	0.006652537267655134	-0.002905292436480522	0.01905171200633049	-0.011624609120190144	-0.013862661086022854	0.0157021377235651	0.005258450284600258	0.004339585546404123	0.032897017896175385	0.019341256469488144	-0.0008084001601673663	0.02578452043235302	0.0038757144939154387	-0.00036332011222839355	-0.012077238410711288	0.000588250404689461	0.019258935004472733	-0.016707424074411392	0.0218765027821064	0.010123907588422298	0.008244691416621208	-0.010532033629715443	0.040279727429151535	-0.006795042660087347	0.026955582201480865	-0.0006054889527149498	0.04059899225831032	0.007365473546087742	-0.017201017588377	0.007151875179260969	-0.02079877071082592	-0.02123492956161499	0.009802376851439476	-0.013685548678040504	-0.011521236039698124	-0.0035579001996666193	0.0023730320390313864	0.01243384089320898	0.001173885422758758	-0.012637907639145851	-0.024654245004057884	-0.028775321319699287	-0.001257711905054748	0.0011788489064201713	0.010934535413980484	-0.017056867480278015	0.0020956580992788076	-0.0047063869424164295	-0.022643188014626503	0.004184182733297348	0.0016137995989993215	0.0030145372729748487	-0.018069377169013023	-0.01147332601249218	0.008961241692304611	-0.012025847099721432	0.016376664862036705	0.02132711000740528	0.012166952714323997	-0.01471521332859993	0.001895581022836268	0.0026496057398617268	0.006322779692709446	0.013626507483422756	-0.0017622102750465274	0.013477752916514874	-0.0013199845561757684	-0.011202248744666576	0.008942642249166965	-0.019580230116844177	0.005585983395576477	-0.010501614771783352	0.0014357486506924033	0.006208631210029125	0.004421676509082317	-0.009096651338040829	-0.011372921988368034	-0.02194233238697052	0.002275531180202961	0.01384345255792141	-0.0017626999178901315	-0.004751622211188078	-0.001665182295255363	-0.001446935348212719	-0.0005031354376114905	0.02658352442085743	-0.015283292159438133	-0.0020804116502404213	-0.011622930876910686	-0.010139656253159046	-0.015488318167626858	-0.004883478861302137	-0.0057829697616398335	0.009050310589373112	0.0227754358202219	-0.0016764815663918853	0.01438959501683712	-0.011838577687740326	0.01240481622517109	-0.0013255075318738818	-0.0068089342676103115	0.004519921727478504	0.0063468380831182	-0.019491741433739662	-0.005692213773727417	0.0006064322660677135	0.02822880819439888	0.010106805711984634	-0.005212078802287579	-0.004260940942913294	-0.0008931111078709364	-0.009356443770229816	0.001643987838178873	-0.015040874481201172	0.016196904703974724	0.004579996224492788	-0.008492314256727695	0.019260603934526443	-0.020660631358623505	-0.01776382513344288	-0.05105513334274292	-0.00032911551534198225	0.020153138786554337	-0.025710348039865494	-0.013400361873209476	0.004377774894237518	-0.015278516337275505	0.006479001138359308	-0.02000926434993744	-0.005690405145287514	-0.012277611531317234	0.013231701217591763	-3.3687480026856065e-05	-0.008611413650214672	-0.0012470302172005177	0.009173